/* Copyright 2020 Google LLC
 *
 * Licensed under the Apache License, Version 2.0 (the "License");
 * you may not use this file except in compliance with the License.
 * You may obtain a copy of the License at
 *
 *     https://www.apache.org/licenses/LICENSE-2.0
 *
 * Unless required by applicable law or agreed to in writing, software
 * distributed under the License is distributed on an "AS IS" BASIS,
 * WITHOUT WARRANTIES OR CONDITIONS OF ANY KIND, either express or implied.
 * See the License for the specific language governing permissions and
 * limitations under the License.
 *
 *
 * Constants and trained parameters for phoneme classifier network.
 */

#ifndef AUDIO_TO_TACTILE_SRC_PHONETICS_CLASSIFY_PHONEME_PARAMS_H_
#define AUDIO_TO_TACTILE_SRC_PHONETICS_CLASSIFY_PHONEME_PARAMS_H_

#include <stdint.h>

/* Number of CARL channels in a frame. */
#define kNumCarlChannels 56

/* Use 5 consecutive frames as input to the network, where 4 of those frames are
 * left (trailing) context. The hop between frames is 8ms, so the network has a
 * latency of 8ms and a temporal context of 40ms.
 */
#define kNumFrames 5

/* Size of the network input. */
#define kInputUnits (kNumCarlChannels * kNumFrames)

/* Number of units in the fully connected layers. */
#define kDense1Units 96
#define kDense2Units 64
#define kDense3Units 32
#define kPhonemeUnits 40

#define kVadOutputUnits 2
#define kVowelOutputUnits 2
#define kDiphthongOutputUnits 2
#define kLaxVowelOutputUnits 2
#define kMannerOutputUnits 5
#define kPlaceOutputUnits 3
#define kVoicedOutputUnits 2

static const float kDense1Bias[kDense1Units] = {
    -0.000180f, 0.204918f,  0.161341f,  -0.515028f, 0.075965f,  -0.012034f,
    0.037004f,  0.325312f,  0.505761f,  -0.077093f, 0.011124f,  0.633052f,
    -0.019479f, 0.258890f,  0.012246f,  0.396202f,  0.172643f,  0.188476f,
    -0.000599f, 0.105253f,  0.037161f,  -0.109077f, 0.029299f,  -0.002996f,
    0.217394f,  0.007119f,  -0.012472f, -0.077255f, -0.023756f, 0.229320f,
    0.004164f,  -0.032704f, 0.100560f,  0.112127f,  0.005997f,  0.259102f,
    0.313029f,  0.094438f,  0.071992f,  0.152194f,  0.096477f,  0.038091f,
    -0.195744f, -0.012737f, 0.015380f,  -0.074333f, 0.144610f,  0.000221f,
    -0.075649f, 0.139345f,  0.278168f,  -0.111788f, 0.058006f,  0.376786f,
    -0.039681f, 0.000790f,  0.133851f,  0.076118f,  0.097218f,  -0.019467f,
    -0.010039f, 0.185353f,  -0.026289f, 0.003358f,  0.093619f,  0.119313f,
    0.063248f,  0.037433f,  0.622930f,  0.133798f,  0.075231f,  0.209877f,
    0.208886f,  -0.007632f, 0.048958f,  0.068316f,  -0.019426f, 0.037767f,
    0.224386f,  0.067576f,  0.256301f,  0.135333f,  0.173474f,  0.853791f,
    0.002856f,  0.006457f,  -0.038341f, 0.074174f,  0.347541f,  0.365066f,
    0.027940f,  0.168461f,  0.173772f,  0.012495f,  0.032730f,  0.003425f};

static const float kDense1Weights[kInputUnits * kDense1Units] = {
    0.213090f,  0.152651f,  0.067763f,  -0.026020f, -0.066406f, -0.059886f,
    -0.037214f, 0.000509f,  0.012181f,  -0.018899f, -0.049516f, -0.068855f,
    -0.084984f, -0.064659f, 0.030841f,  0.114549f,  0.105400f,  0.042086f,
    -0.001388f, -0.033472f, -0.121054f, -0.242105f, -0.244760f, -0.093745f,
    0.083775f,  0.207759f,  0.294702f,  0.336306f,  0.297790f,  0.192885f,
    0.106267f,  0.047422f,  0.015045f,  0.012439f,  0.058792f,  0.057276f,
    -0.019869f, -0.065898f, -0.051148f, -0.002984f, 0.004421f,  0.003203f,
    -0.038546f, -0.096216f, -0.102447f, -0.022809f, -0.042835f, -0.087217f,
    -0.063222f, -0.025688f, -0.008076f, 0.019272f,  0.047798f,  0.063383f,
    0.012731f,  -0.049532f, 0.135665f,  0.085597f,  0.021606f,  -0.044249f,
    -0.064602f, -0.057240f, -0.042946f, 0.002201f,  0.036953f,  0.016302f,
    -0.026322f, -0.056739f, -0.075331f, -0.067773f, -0.010294f, 0.041601f,
    0.034670f,  0.003388f,  -0.004679f, -0.006765f, -0.044818f, -0.083552f,
    -0.013664f, 0.146392f,  0.262323f,  0.285438f,  0.259288f,  0.187249f,
    0.038477f,  -0.107260f, -0.157346f, -0.149197f, -0.120526f, -0.070713f,
    0.013848f,  0.047806f,  -0.010118f, -0.056893f, -0.044913f, -0.011204f,
    -0.000905f, 0.011656f,  -0.017188f, -0.055167f, -0.058061f, -0.003236f,
    -0.043655f, -0.069761f, -0.013599f, 0.062787f,  0.071024f,  0.068195f,
    0.065651f,  0.066210f,  -0.004959f, -0.067706f, 0.011124f,  -0.023247f,
    -0.060970f, -0.083925f, -0.065737f, -0.037536f, -0.021271f, 0.022020f,
    0.067953f,  0.053415f,  -0.005250f, -0.051122f, -0.070154f, -0.066070f,
    -0.034434f, -0.001511f, 0.001946f,  -0.005071f, -0.000454f, 0.013713f,
    0.027101f,  0.076829f,  0.216148f,  0.369309f,  0.399024f,  0.301118f,
    0.159895f,  -0.000559f, -0.206036f, -0.360364f, -0.373343f, -0.308896f,
    -0.225782f, -0.122561f, 0.003739f,  0.073988f,  0.040786f,  -0.001053f,
    -0.003341f, -0.004478f, -0.001813f, 0.030336f,  0.019261f,  0.002101f,
    -0.001217f, 0.029323f,  -0.030772f, -0.042477f, 0.000521f,  0.071609f,
    0.091449f,  0.081470f,  0.069323f,  0.049349f,  -0.040029f, -0.097155f,
    -0.143568f, -0.171583f, -0.187441f, -0.170430f, -0.103476f, -0.032921f,
    0.003311f,  0.050148f,  0.106634f,  0.097491f,  0.022941f,  -0.037222f,
    -0.045047f, -0.019903f, 0.015249f,  0.050146f,  0.069078f,  0.069997f,
    0.063864f,  0.083842f,  0.151110f,  0.284228f,  0.457633f,  0.531353f,
    0.400645f,  0.147824f,  -0.090833f, -0.277473f, -0.452914f, -0.559610f,
    -0.527014f, -0.424232f, -0.306566f, -0.164503f, -0.001106f, 0.101029f,
    0.085841f,  0.053058f,  0.047494f,  0.016405f,  0.004356f,  0.053207f,
    0.062811f,  0.060928f,  0.059296f,  0.078779f,  0.020231f,  0.035590f,
    0.045429f,  0.067427f,  0.081024f,  0.067401f,  0.055008f,  0.019341f,
    -0.074169f, -0.112699f, -0.188657f, -0.232106f, -0.257850f, -0.232598f,
    -0.138617f, -0.029306f, 0.037346f,  0.095274f,  0.160665f,  0.157645f,
    0.080645f,  0.024850f,  0.035400f,  0.089463f,  0.157084f,  0.225529f,
    0.263256f,  0.243901f,  0.190330f,  0.189015f,  0.284839f,  0.464088f,
    0.620212f,  0.558081f,  0.214573f,  -0.228608f, -0.554957f, -0.714610f,
    -0.796099f, -0.818359f, -0.733648f, -0.597154f, -0.457876f, -0.292263f,
    -0.101532f, 0.021159f,  0.020727f,  -0.001546f, -0.007782f, -0.046469f,
    -0.053198f, 0.014361f,  0.040729f,  0.044320f,  0.034897f,  0.059169f,
    0.028790f,  0.076134f,  0.055686f,  0.009750f,  -0.005085f, -0.019628f,
    -0.017553f, -0.032789f, -0.101068f, -0.113011f, 0.199495f,  0.203449f,
    0.181552f,  0.149937f,  0.092150f,  0.036601f,  0.002843f,  -0.002458f,
    -0.023607f, -0.042195f, -0.028023f, -0.003502f, -0.010882f, -0.032651f,
    -0.069737f, -0.156885f, -0.274225f, -0.323642f, -0.248186f, -0.111548f,
    -0.027271f, -0.058501f, -0.172406f, -0.243659f, -0.181297f, -0.044226f,
    0.049925f,  0.057521f,  0.045568f,  0.063280f,  0.083082f,  0.086740f,
    0.051881f,  -0.013579f, -0.105018f, -0.205665f, -0.277599f, -0.269731f,
    -0.206249f, -0.151409f, -0.070391f, -0.037133f, -0.000234f, 0.041236f,
    0.098707f,  0.097555f,  0.015993f,  0.026706f,  0.032982f,  -0.029788f,
    -0.041568f, -0.006267f, -0.066104f, -0.154914f, -0.124541f, -0.036884f,
    0.082109f,  0.089327f,  0.079668f,  0.069811f,  0.039317f,  0.012004f,
    -0.006822f, -0.009603f, -0.020154f, -0.013909f, 0.027637f,  0.067369f,
    0.055064f,  0.014460f,  -0.029975f, -0.085209f, -0.140752f, -0.147622f,
    -0.062829f, 0.072732f,  0.157461f,  0.122284f,  -0.007330f, -0.105053f,
    -0.061446f, 0.081138f,  0.197411f,  0.226474f,  0.213599f,  0.202803f,
    0.193658f,  0.172368f,  0.107727f,  0.015664f,  -0.075765f, -0.148526f,
    -0.170296f, -0.116522f, -0.035517f, 0.001112f,  0.053741f,  0.053784f,
    0.040446f,  0.030693f,  0.052877f,  0.043500f,  -0.019400f, -0.017277f,
    -0.029225f, -0.071059f, -0.048203f, -0.011587f, -0.066358f, -0.130807f,
    -0.076108f, 0.020101f,  -0.039331f, -0.023265f, -0.012161f, 0.004144f,
    0.022610f,  0.041948f,  0.038400f,  0.016971f,  -0.009844f, 0.006767f,
    0.071882f,  0.125639f,  0.108810f,  0.044484f,  -0.020954f, -0.059188f,
    -0.062933f, -0.031355f, 0.055356f,  0.168665f,  0.224598f,  0.167490f,
    0.024212f,  -0.085235f, -0.043788f, 0.119617f,  0.274689f,  0.335087f,
    0.320145f,  0.273782f,  0.230047f,  0.193796f,  0.106834f,  -0.011898f,
    -0.102163f, -0.152534f, -0.144249f, -0.052771f, 0.053705f,  0.086693f,
    0.117722f,  0.084080f,  0.028267f,  -0.022192f, -0.025286f, -0.035749f,
    -0.078503f, -0.085884f, -0.103795f, -0.125166f, -0.073881f, -0.017298f,
    -0.050430f, -0.075842f, 0.028163f,  0.153366f,  -0.154713f, -0.129661f,
    -0.105080f, -0.068833f, -0.006233f, 0.049818f,  0.061131f,  0.030439f,
    -0.015030f, -0.007774f, 0.064350f,  0.127891f,  0.113554f,  0.039311f,
    -0.038056f, -0.064856f, -0.039377f, 0.003072f,  0.066453f,  0.132834f,
    0.132768f,  0.026719f,  -0.147078f, -0.272549f, -0.236435f, -0.054355f,
    0.149542f,  0.277512f,  0.319319f,  0.295616f,  0.259300f,  0.245839f,
    0.169276f,  0.034577f,  -0.077858f, -0.148114f, -0.148823f, -0.040320f,
    0.090951f,  0.138268f,  0.179080f,  0.126608f,  0.049748f,  -0.013376f,
    -0.041401f, -0.081110f, -0.120378f, -0.119318f, -0.126057f, -0.145724f,
    -0.087549f, -0.024186f, -0.031567f, 0.014090f,  0.186025f,  0.348061f,
    -0.298980f, -0.253264f, -0.212340f, -0.158467f, -0.074222f, -0.006654f,
    0.006123f,  -0.032533f, -0.093889f, -0.099972f, -0.030457f, 0.039460f,
    0.029334f,  -0.046874f, -0.129042f, -0.154635f, -0.124573f, -0.096605f,
    -0.072642f, -0.054248f, -0.100254f, -0.246979f, -0.455399f, -0.606813f,
    -0.579440f, -0.376720f, -0.115529f, 0.114074f,  0.289259f,  0.366924f,
    0.398322f,  0.439557f,  0.379002f,  0.208322f,  0.033504f,  -0.105685f,
    -0.154379f, -0.051476f, 0.109158f,  0.194522f,  0.268910f,  0.215331f,
    0.113817f,  0.020673f,  -0.055578f, -0.153714f, -0.203986f, -0.179920f,
    -0.173227f, -0.207839f, -0.153040f, -0.084195f, -0.053728f, 0.072113f,
    0.319101f,  0.514410f,  0.050903f,  0.088255f,  0.097438f,  0.080545f,
    0.053921f,  0.034976f,  0.038605f,  0.005105f,  -0.022470f, -0.007174f,
    0.023074f,  0.039736f,  0.019469f,  -0.038712f, -0.131096f, -0.180779f,
    -0.124086f, -0.037486f, 0.030605f,  0.094618f,  0.130881f,  0.146196f,
    0.116120f,  0.064699f,  0.095286f,  0.202956f,  0.334947f,  0.443058f,
    0.413100f,  0.238700f,  -0.013635f, -0.225098f, -0.321536f, -0.315363f,
    -0.233826f, -0.150431f, -0.116766f, -0.125353f, -0.128575f, -0.141228f,
    -0.099325f, -0.072628f, -0.143954f, -0.104586f, -0.033059f, -0.012194f,
    0.009162f,  0.107989f,  0.136682f,  0.201902f,  0.262972f,  0.247754f,
    0.177134f,  0.069263f,  0.045924f,  -0.018938f, -0.047503f, -0.002351f,
    0.021334f,  0.025613f,  0.019311f,  0.017162f,  0.024404f,  -0.015148f,
    -0.057381f, -0.044504f, 0.000372f,  0.042280f,  0.045269f,  -0.006487f,
    -0.110113f, -0.190695f, -0.186384f, -0.150630f, -0.115071f, -0.071771f,
    -0.055929f, -0.063433f, -0.100779f, -0.141260f, -0.086049f, 0.066781f,
    0.276746f,  0.486260f,  0.566754f,  0.467456f,  0.263622f,  0.063320f,
    -0.081316f, -0.147605f, -0.122397f, -0.081884f, -0.067354f, -0.057608f,
    -0.032362f, -0.042396f, -0.007370f, 0.036554f,  0.015192f,  0.021648f,
    0.027871f,  0.001567f,  -0.026853f, 0.041373f,  0.041382f,  0.023883f,
    0.038983f,  0.042710f,  0.023659f,  0.005749f,  0.023220f,  -0.001751f,
    -0.176804f, -0.102723f, -0.049507f, -0.012631f, 0.012978f,  0.028221f,
    0.032163f,  -0.003526f, -0.046940f, -0.030987f, 0.028717f,  0.076821f,
    0.065886f,  0.002076f,  -0.080551f, -0.130307f, -0.127716f, -0.112133f,
    -0.095609f, -0.070503f, -0.069703f, -0.088815f, -0.137936f, -0.213581f,
    -0.224311f, -0.127039f, 0.089160f,  0.377778f,  0.570281f,  0.541696f,
    0.379360f,  0.197713f,  0.039068f,  -0.051263f, -0.045236f, -0.026159f,
    -0.025162f, -0.014146f, 0.013312f,  0.009123f,  0.030504f,  0.057579f,
    0.079526f,  0.078005f,  0.047776f,  0.012696f,  -0.037698f, -0.018681f,
    -0.034133f, -0.070383f, -0.086864f, -0.063299f, -0.049151f, -0.044950f,
    -0.002636f, 0.043438f,  -0.251918f, -0.142594f, -0.049474f, 0.013255f,
    0.054212f,  0.068018f,  0.044771f,  -0.006758f, -0.047405f, -0.027974f,
    0.036102f,  0.089261f,  0.073181f,  0.004015f,  -0.049156f, -0.046071f,
    -0.005716f, 0.010918f,  0.002682f,  0.000432f,  -0.009164f, -0.030528f,
    -0.099562f, -0.248365f, -0.400005f, -0.462725f, -0.348438f, -0.059522f,
    0.234841f,  0.339253f,  0.293851f,  0.206730f,  0.129450f,  0.090221f,
    0.103190f,  0.097241f,  0.082518f,  0.066777f,  0.039750f,  0.002122f,
    -0.000491f, -0.002870f, 0.019982f,  0.023796f,  0.021472f,  0.019017f,
    -0.036618f, -0.057153f, -0.102301f, -0.126878f, -0.146412f, -0.098985f,
    -0.065563f, -0.062120f, -0.012780f, 0.092613f,  -0.142086f, -0.054339f,
    0.040725f,  0.116206f,  0.168989f,  0.176982f,  0.125079f,  0.040882f,
    -0.015882f, 0.002775f,  0.074281f,  0.137231f,  0.123633f,  0.045272f,
    0.010456f,  0.056293f,  0.095175f,  0.049049f,  -0.034518f, -0.090059f,
    -0.121233f, -0.153164f, -0.263450f, -0.515348f, -0.830711f, -1.072526f,
    -1.088909f, -0.830030f, -0.429058f, -0.121091f, 0.055507f,  0.159237f,
    0.241273f,  0.311518f,  0.362226f,  0.336427f,  0.277843f,  0.198872f,
    0.085131f,  -0.003477f, -0.024864f, -0.024676f, 0.011583f,  0.042255f,
    0.100485f,  0.123917f,  0.035568f,  -0.047012f, -0.138785f, -0.156973f,
    -0.134437f, -0.051495f, -0.004772f, -0.021012f, 0.019608f,  0.151230f,
    -0.045604f, -0.067504f, -0.107724f, -0.163456f, -0.212791f, -0.237446f,
    -0.209411f, -0.137776f, -0.071656f, -0.069248f, -0.125331f, -0.145281f,
    -0.056357f, 0.095622f,  0.189874f,  0.158520f,  0.094212f,  0.100976f,
    0.143821f,  0.146902f,  0.105460f,  0.081239f,  0.083472f,  0.061310f,
    0.008917f,  -0.037335f, -0.072632f, -0.124748f, -0.195680f, -0.240109f,
    -0.219788f, -0.174904f, -0.154618f, -0.170379f, -0.194869f, -0.199659f,
    -0.182011f, -0.144774f, -0.076297f, -0.005515f, 0.042871f,  0.163256f,
    0.229317f,  0.211746f,  0.219870f,  0.233971f,  0.130187f,  0.004893f,
    -0.013882f, -0.054776f, -0.106043f, -0.109940f, -0.138623f, -0.259305f,
    -0.221292f, -0.097247f, -0.014940f, -0.031484f, -0.062369f, -0.109559f,
    -0.158152f, -0.189184f, -0.170944f, -0.108189f, -0.045769f, -0.033774f,
    -0.067324f, -0.070207f, 0.010747f,  0.132803f,  0.188558f,  0.118196f,
    0.022590f,  0.014422f,  0.067729f,  0.107265f,  0.116536f,  0.134233f,
    0.154053f,  0.131225f,  0.077225f,  0.033969f,  0.003665f,  -0.043611f,
    -0.101078f, -0.117115f, -0.066875f, -0.002706f, 0.025539f,  0.007233f,
    -0.036263f, -0.064631f, -0.066538f, -0.047159f, 0.003124f,  0.067996f,
    0.090395f,  0.153210f,  0.183945f,  0.155686f,  0.155981f,  0.183675f,
    0.114416f,  0.013264f,  0.017901f,  0.007293f,  -0.028408f, -0.013338f,
    -0.027047f, -0.150247f, -0.116335f, -0.006953f, -0.018415f, -0.025238f,
    -0.043297f, -0.077434f, -0.122067f, -0.157219f, -0.150622f, -0.100304f,
    -0.047601f, -0.030448f, -0.045001f, -0.034411f, 0.033213f,  0.119655f,
    0.133441f,  0.026189f,  -0.100073f, -0.124065f, -0.052557f, 0.038609f,
    0.118857f,  0.199981f,  0.245754f,  0.209291f,  0.129487f,  0.067926f,
    0.021984f,  -0.044066f, -0.115575f, -0.121522f, -0.043999f, 0.049803f,
    0.099565f,  0.091375f,  0.041482f,  -0.004798f, -0.025555f, -0.024865f,
    0.011281f,  0.069196f,  0.074467f,  0.096362f,  0.109622f,  0.086057f,
    0.075882f,  0.096641f,  0.044851f,  -0.043066f, 0.004605f,  0.040839f,
    0.016798f,  0.049196f,  0.062026f,  -0.040002f, 0.001900f,  0.101245f,
    -0.001143f, -0.002376f, -0.012782f, -0.042303f, -0.087407f, -0.126617f,
    -0.129255f, -0.091198f, -0.053210f, -0.039914f, -0.046396f, -0.034287f,
    0.010894f,  0.058087f,  0.037173f,  -0.087591f, -0.224758f, -0.251961f,
    -0.157880f, -0.010399f, 0.148794f,  0.298721f,  0.370827f,  0.312681f,
    0.183076f,  0.069351f,  -0.018309f, -0.113930f, -0.203728f, -0.207284f,
    -0.106333f, 0.023139f,  0.105701f,  0.118209f,  0.073364f,  0.016895f,
    -0.013263f, -0.007306f, 0.046489f,  0.123182f,  0.144216f,  0.150564f,
    0.145324f,  0.111012f,  0.079148f,  0.079258f,  0.012645f,  -0.088585f,
    -0.021200f, 0.052768f,  0.034758f,  0.072140f,  0.115444f,  0.045509f,
    0.109197f,  0.209338f,  0.047790f,  0.045437f,  0.034372f,  0.000639f,
    -0.051561f, -0.103336f, -0.123623f, -0.104258f, -0.088346f, -0.093487f,
    -0.111579f, -0.111636f, -0.085653f, -0.064398f, -0.101728f, -0.220921f,
    -0.347561f, -0.365036f, -0.248020f, -0.055385f, 0.166266f,  0.369296f,
    0.456789f,  0.370937f,  0.184029f,  0.010311f,  -0.120883f, -0.241022f,
    -0.335831f, -0.326770f, -0.202403f, -0.040506f, 0.078250f,  0.118453f,
    0.090009f,  0.040633f,  0.022220f,  0.052115f,  0.138266f,  0.250504f,
    0.306717f,  0.314265f,  0.280125f,  0.208174f,  0.135049f,  0.105254f,
    0.018607f,  -0.099886f, -0.034914f, 0.061054f,  0.044021f,  0.076560f,
    0.138072f,  0.106967f,  0.193131f,  0.295693f,  -0.050929f, -0.041792f,
    -0.037930f, -0.004413f, 0.054375f,  0.116943f,  0.115532f,  0.062196f,
    -0.005537f, -0.024754f, 0.012335f,  0.059289f,  0.086819f,  0.074494f,
    0.039573f,  0.040339f,  0.076416f,  0.116804f,  0.166580f,  0.190347f,
    0.141012f,  0.077502f,  0.062903f,  0.083700f,  0.101024f,  0.114796f,
    0.132114f,  0.147348f,  0.183301f,  0.212839f,  0.219362f,  0.217138f,
    0.309599f,  0.442676f,  0.532415f,  0.582341f,  0.641416f,  0.674944f,
    0.554321f,  0.315994f,  0.090040f,  -0.137335f, -0.436511f, -0.673009f,
    -0.751002f, -0.679954f, -0.538847f, -0.388821f, -0.252472f, -0.206489f,
    -0.080984f, 0.121040f,  0.240440f,  0.319571f,  0.458571f,  0.712816f,
    -0.068261f, -0.077003f, -0.091650f, -0.079087f, -0.031046f, 0.012882f,
    0.027413f,  0.009415f,  -0.046168f, -0.070136f, -0.041043f, 0.000857f,
    0.030058f,  0.025109f,  -0.006972f, -0.018389f, -0.002620f, 0.023831f,
    0.069819f,  0.099959f,  0.066942f,  0.015075f,  0.006228f,  0.033429f,
    0.044744f,  0.029813f,  0.004967f,  -0.023565f, -0.025474f, -0.004805f,
    0.008328f,  0.010347f,  0.090258f,  0.194035f,  0.252063f,  0.271156f,
    0.312240f,  0.344419f,  0.246514f,  0.068058f,  -0.075312f, -0.209032f,
    -0.397654f, -0.531251f, -0.568040f, -0.523964f, -0.420643f, -0.298880f,
    -0.200586f, -0.197725f, -0.139099f, 0.000275f,  0.091404f,  0.160144f,
    0.271003f,  0.485804f,  -0.008831f, -0.038342f, -0.075338f, -0.078069f,
    -0.045648f, -0.020240f, 0.000008f,  -0.002927f, -0.056095f, -0.083461f,
    -0.065273f, -0.037711f, -0.022892f, -0.033140f, -0.076385f, -0.109183f,
    -0.104948f, -0.066072f, 0.003916f,  0.051830f,  0.026471f,  -0.032632f,
    -0.052972f, -0.027268f, -0.013399f, -0.025483f, -0.042122f, -0.073463f,
    -0.102139f, -0.097832f, -0.081891f, -0.088701f, -0.031574f, 0.056713f,
    0.103905f,  0.111114f,  0.159055f,  0.215707f,  0.162638f,  0.063832f,
    -0.001264f, -0.056711f, -0.153115f, -0.215296f, -0.246839f, -0.262911f,
    -0.241545f, -0.170144f, -0.106186f, -0.119698f, -0.113303f, -0.061795f,
    -0.036659f, 0.012777f,  0.077222f,  0.221443f,  0.155321f,  0.095662f,
    0.024012f,  -0.002646f, 0.009630f,  0.020286f,  0.035886f,  0.026965f,
    -0.025851f, -0.040707f, -0.018298f, 0.007465f,  0.018656f,  0.008358f,
    -0.053215f, -0.124382f, -0.138950f, -0.091572f, 0.000649f,  0.073386f,
    0.052570f,  -0.031499f, -0.076471f, -0.055182f, -0.027868f, -0.018696f,
    -0.013727f, -0.040985f, -0.087003f, -0.104138f, -0.096545f, -0.125165f,
    -0.118658f, -0.070613f, -0.046066f, -0.053976f, 0.010468f,  0.129242f,
    0.164948f,  0.151874f,  0.140972f,  0.128277f,  0.078781f,  0.061832f,
    0.033473f,  -0.048729f, -0.108226f, -0.093779f, -0.061883f, -0.051643f,
    -0.046750f, -0.070005f, -0.122873f, -0.103788f, -0.076322f, 0.003608f,
    0.320232f,  0.266890f,  0.178243f,  0.115563f,  0.081258f,  0.050030f,
    0.042638f,  0.017407f,  -0.048793f, -0.060528f, -0.020216f, 0.034634f,
    0.074632f,  0.088784f,  0.035112f,  -0.059109f, -0.104243f, -0.066851f,
    0.038631f,  0.133278f,  0.119116f,  0.019272f,  -0.035597f, -0.011808f,
    0.014745f,  0.017517f,  0.017485f,  -0.020365f, -0.090590f, -0.126384f,
    -0.120857f, -0.163132f, -0.202596f, -0.195643f, -0.193198f, -0.196230f,
    -0.099704f, 0.091633f,  0.221048f,  0.272392f,  0.295368f,  0.321161f,
    0.297585f,  0.291702f,  0.252250f,  0.106870f,  -0.027050f, -0.075252f,
    -0.063330f, -0.015201f, 0.011105f,  -0.061831f, -0.184471f, -0.198005f,
    -0.172409f, -0.119462f, 0.196205f,  0.101052f,  0.010881f,  -0.055229f,
    -0.068586f, -0.036226f, -0.005551f, 0.001979f,  -0.002688f, -0.005887f,
    -0.004519f, 0.038623f,  0.105762f,  0.112245f,  0.072067f,  0.035700f,
    -0.002444f, -0.073859f, -0.154358f, -0.145680f, 0.003433f,  0.168041f,
    0.173936f,  -0.058352f, -0.414621f, -0.687867f, -0.742202f, -0.584293f,
    -0.272264f, 0.068045f,  0.292025f,  0.351894f,  0.362698f,  0.318038f,
    0.239974f,  0.222459f,  0.172071f,  0.051210f,  -0.035584f, -0.120341f,
    -0.099873f, -0.005644f, -0.001915f, 0.044726f,  0.103013f,  0.024760f,
    -0.012917f, -0.052045f, -0.038756f, -0.039910f, -0.031465f, -0.083264f,
    -0.113562f, -0.052793f, -0.032740f, 0.053559f,  0.196377f,  0.107322f,
    0.022805f,  -0.038378f, -0.064351f, -0.049076f, -0.024633f, -0.025975f,
    -0.043473f, -0.062360f, -0.071826f, -0.037857f, 0.030828f,  0.050464f,
    0.019971f,  -0.014464f, -0.051925f, -0.105549f, -0.159394f, -0.144310f,
    -0.023993f, 0.096446f,  0.087601f,  -0.086800f, -0.308827f, -0.400089f,
    -0.300335f, -0.085869f, 0.154523f,  0.328216f,  0.365617f,  0.284258f,
    0.227735f,  0.161415f,  0.073015f,  0.049105f,  -0.006945f, -0.075529f,
    -0.049944f, -0.043691f, -0.026171f, 0.029606f,  0.001085f,  0.000918f,
    0.019059f,  -0.033727f, -0.019795f, -0.049600f, -0.043482f, -0.019584f,
    0.003339f,  -0.021839f, -0.025239f, -0.005574f, -0.037635f, 0.006807f,
    0.240287f,  0.156357f,  0.079524f,  0.023153f,  -0.007390f, 0.004978f,
    0.025946f,  0.007570f,  -0.037209f, -0.076959f, -0.095224f, -0.069020f,
    -0.005844f, 0.013616f,  -0.026784f, -0.073678f, -0.107389f, -0.129616f,
    -0.141998f, -0.121112f, -0.065143f, -0.042046f, -0.098192f, -0.204965f,
    -0.265867f, -0.162104f, 0.083632f,  0.329133f,  0.485299f,  0.524080f,
    0.429160f,  0.238691f,  0.115687f,  0.019147f,  -0.077742f, -0.095265f,
    -0.126177f, -0.138914f, -0.036142f, 0.014266f,  0.021276f,  0.064924f,
    0.006049f,  -0.016760f, -0.016833f, -0.069756f, -0.039989f, -0.047905f,
    -0.042002f, -0.022009f, 0.016722f,  0.020566f,  0.044527f,  0.049865f,
    -0.003806f, 0.027550f,  0.138194f,  0.053849f,  -0.008745f, -0.035779f,
    -0.030876f, 0.022899f,  0.059131f,  0.032943f,  -0.031905f, -0.086686f,
    -0.106474f, -0.079248f, -0.024060f, -0.027487f, -0.098448f, -0.153025f,
    -0.152472f, -0.101050f, -0.044851f, -0.028657f, -0.054478f, -0.124498f,
    -0.197570f, -0.212656f, -0.121306f, 0.110294f,  0.384533f,  0.541277f,
    0.532847f,  0.411694f,  0.202063f,  -0.055085f, -0.194479f, -0.247182f,
    -0.257000f, -0.172662f, -0.106437f, -0.058813f, 0.068567f,  0.113072f,
    0.075420f,  0.102738f,  0.030717f,  0.001534f,  0.011616f,  -0.051050f,
    -0.031760f, -0.041906f, -0.052072f, -0.039576f, 0.000264f,  0.003692f,
    0.033331f,  0.035600f,  -0.000257f, 0.073669f,  0.175315f,  0.026965f,
    -0.089228f, -0.125415f, -0.093035f, 0.009125f,  0.095061f,  0.094539f,
    0.024896f,  -0.045097f, -0.069738f, -0.025746f, 0.042811f,  0.028915f,
    -0.058489f, -0.103420f, -0.044793f, 0.110222f,  0.242571f,  0.236826f,
    0.120702f,  -0.006004f, -0.038624f, 0.060175f,  0.251887f,  0.486935f,
    0.628506f,  0.536759f,  0.225783f,  -0.144013f, -0.496973f, -0.758961f,
    -0.801947f, -0.695692f, -0.526540f, -0.289914f, -0.117883f, -0.033301f,
    0.071811f,  0.099704f,  0.047194f,  0.078734f,  0.054228f,  0.058137f,
    0.095342f,  0.078301f,  0.120476f,  0.088482f,  0.018881f,  -0.010451f,
    0.008945f,  -0.004177f, 0.002112f,  0.005852f,  -0.010259f, 0.099616f,
    0.149526f,  0.165049f,  0.141925f,  0.067717f,  -0.048239f, -0.145928f,
    -0.179068f, -0.205120f, -0.248137f, -0.240946f, -0.173429f, -0.100228f,
    -0.043802f, -0.021989f, -0.022172f, 0.011690f,  0.088246f,  0.133893f,
    0.096005f,  0.007084f,  -0.062078f, -0.045010f, 0.046195f,  0.149851f,
    0.224863f,  0.278301f,  0.324264f,  0.346649f,  0.348329f,  0.342133f,
    0.295146f,  0.187382f,  0.049313f,  -0.052230f, -0.131323f, -0.218670f,
    -0.279611f, -0.296930f, -0.293639f, -0.234244f, -0.098830f, -0.035800f,
    -0.095399f, -0.083386f, -0.045132f, -0.045639f, -0.028571f, 0.006157f,
    0.003341f,  0.046495f,  0.025793f,  -0.075362f, -0.121762f, -0.098028f,
    -0.040706f, -0.127936f, 0.177366f,  0.202747f,  0.194592f,  0.130840f,
    0.018427f,  -0.080877f, -0.109044f, -0.127222f, -0.170077f, -0.175005f,
    -0.133550f, -0.085823f, -0.044073f, -0.026658f, -0.028890f, -0.008057f,
    0.043635f,  0.064782f,  0.019696f,  -0.060046f, -0.119938f, -0.113708f,
    -0.056134f, 0.008020f,  0.048134f,  0.080581f,  0.138255f,  0.213327f,
    0.292253f,  0.340491f,  0.309543f,  0.190730f,  0.035127f,  -0.084526f,
    -0.174501f, -0.248927f, -0.275323f, -0.264428f, -0.246875f, -0.180307f,
    -0.046185f, 0.030916f,  -0.004921f, 0.011926f,  0.039032f,  0.029773f,
    0.021674f,  0.011787f,  -0.000590f, 0.053380f,  0.087369f,  0.052094f,
    0.021814f,  0.017207f,  0.061816f,  -0.008818f, 0.220422f,  0.259397f,
    0.264485f,  0.201127f,  0.074336f,  -0.038847f, -0.073823f, -0.087248f,
    -0.129833f, -0.154808f, -0.144386f, -0.124838f, -0.103040f, -0.094793f,
    -0.097925f, -0.076217f, -0.026539f, -0.007008f, -0.042663f, -0.096904f,
    -0.126461f, -0.111586f, -0.077247f, -0.056062f, -0.061362f, -0.061944f,
    -0.011661f, 0.094733f,  0.234022f,  0.329251f,  0.318425f,  0.195685f,
    0.029212f,  -0.101894f, -0.194216f, -0.251651f, -0.248858f, -0.219281f,
    -0.199053f, -0.135810f, -0.010232f, 0.076077f,  0.059239f,  0.067686f,
    0.059300f,  0.023980f,  0.000135f,  -0.028683f, -0.036694f, 0.031594f,
    0.106112f,  0.131485f,  0.122842f,  0.113015f,  0.142419f,  0.071260f,
    0.318294f,  0.373745f,  0.394219f,  0.330126f,  0.182917f,  0.042087f,
    -0.013326f, -0.044922f, -0.112411f, -0.165718f, -0.187749f, -0.201150f,
    -0.206875f, -0.212051f, -0.211478f, -0.177355f, -0.115517f, -0.087198f,
    -0.106501f, -0.126087f, -0.108155f, -0.057804f, -0.023659f, -0.030328f,
    -0.073652f, -0.116055f, -0.097190f, 0.009939f,  0.180805f,  0.317889f,
    0.348977f,  0.253852f,  0.090367f,  -0.055218f, -0.153492f, -0.199012f,
    -0.188727f, -0.157724f, -0.140794f, -0.085717f, 0.018899f,  0.087357f,
    0.060128f,  0.035952f,  -0.019155f, -0.072947f, -0.081766f, -0.076815f,
    -0.055919f, 0.021697f,  0.126800f,  0.193955f,  0.197176f,  0.170920f,
    0.163215f,  0.067118f,  0.384461f,  0.477679f,  0.531602f,  0.477662f,
    0.319914f,  0.155635f,  0.074500f,  0.012887f,  -0.095659f, -0.197372f,
    -0.260606f, -0.300708f, -0.323001f, -0.336020f, -0.336054f, -0.298376f,
    -0.226882f, -0.180457f, -0.174923f, -0.154917f, -0.081372f, 0.021528f,
    0.081217f,  0.071950f,  0.014132f,  -0.049819f, -0.053602f, 0.042045f,
    0.220169f,  0.388559f,  0.464743f,  0.409453f,  0.264525f,  0.106690f,
    -0.010412f, -0.066457f, -0.070716f, -0.051079f, -0.036431f, 0.000605f,
    0.061798f,  0.082342f,  0.011949f,  -0.059787f, -0.154848f, -0.220655f,
    -0.208717f, -0.152161f, -0.092716f, -0.004536f, 0.129441f,  0.222259f,
    0.223826f,  0.167316f,  0.118975f,  0.002998f,  -0.128058f, -0.054729f,
    0.050002f,  0.156850f,  0.198472f,  0.159661f,  0.116773f,  0.081316f,
    0.012862f,  -0.062696f, -0.073440f, 0.016604f,  0.168598f,  0.290628f,
    0.299111f,  0.209709f,  0.102637f,  0.063605f,  0.102163f,  0.161341f,
    0.179239f,  0.144357f,  0.122771f,  0.196840f,  0.350523f,  0.481002f,
    0.516139f,  0.470232f,  0.387680f,  0.299691f,  0.194094f,  0.059623f,
    -0.094989f, -0.251258f, -0.399859f, -0.537295f, -0.666626f, -0.782076f,
    -0.873749f, -0.928774f, -0.920401f, -0.848042f, -0.724065f, -0.564939f,
    -0.374065f, -0.184097f, -0.065375f, -0.026448f, -0.001340f, 0.012180f,
    0.040015f,  0.139127f,  0.224272f,  0.133104f,  0.193388f,  0.378709f,
    -0.204077f, -0.137304f, -0.043617f, 0.060535f,  0.096582f,  0.063647f,
    0.021395f,  -0.018394f, -0.083211f, -0.149919f, -0.159892f, -0.088513f,
    0.033565f,  0.137387f,  0.150514f,  0.086834f,  0.006606f,  -0.017251f,
    0.023970f,  0.081677f,  0.097084f,  0.050602f,  0.006095f,  0.051714f,
    0.187822f,  0.326496f,  0.388667f,  0.371477f,  0.312048f,  0.248969f,
    0.176489f,  0.076121f,  -0.051593f, -0.186136f, -0.318752f, -0.452887f,
    -0.582707f, -0.696464f, -0.787054f, -0.851988f, -0.878059f, -0.862978f,
    -0.801448f, -0.705559f, -0.579104f, -0.433326f, -0.309829f, -0.217121f,
    -0.138265f, -0.084878f, -0.043847f, 0.035675f,  0.111638f,  0.057000f,
    0.098456f,  0.223430f,  -0.145863f, -0.084536f, -0.002844f, 0.086342f,
    0.124777f,  0.110971f,  0.075407f,  0.021975f,  -0.056804f, -0.121722f,
    -0.135826f, -0.090833f, -0.005968f, 0.067421f,  0.080105f,  0.042596f,
    -0.014597f, -0.036534f, -0.003039f, 0.053414f,  0.066918f,  0.003655f,
    -0.064440f, -0.036231f, 0.096357f,  0.250323f,  0.337229f,  0.342962f,
    0.307276f,  0.275063f,  0.247094f,  0.196055f,  0.107054f,  -0.006869f,
    -0.130993f, -0.262967f, -0.397388f, -0.520513f, -0.626629f, -0.714199f,
    -0.777360f, -0.814462f, -0.812352f, -0.772752f, -0.702314f, -0.602782f,
    -0.481190f, -0.349860f, -0.225140f, -0.132674f, -0.084884f, -0.029566f,
    0.045932f,  0.037449f,  0.069617f,  0.149841f,  -0.075673f, -0.013334f,
    0.067018f,  0.141130f,  0.174854f,  0.166916f,  0.140364f,  0.090602f,
    0.004659f,  -0.067671f, -0.093887f, -0.073756f, -0.021314f, 0.019641f,
    0.033070f,  0.034133f,  0.010084f,  -0.007234f, 0.017862f,  0.062646f,
    0.058577f,  -0.028600f, -0.119062f, -0.103593f, 0.026522f,  0.186963f,
    0.286731f,  0.309830f,  0.295338f,  0.285927f,  0.285979f,  0.268456f,
    0.213847f,  0.129906f,  0.024880f,  -0.095057f, -0.223590f, -0.349508f,
    -0.463260f, -0.566104f, -0.657107f, -0.729825f, -0.767391f, -0.760508f,
    -0.719901f, -0.646538f, -0.534639f, -0.403084f, -0.265591f, -0.150391f,
    -0.095805f, -0.055674f, 0.022129f,  0.060507f,  0.109270f,  0.177672f,
    -0.091783f, -0.039915f, 0.035431f,  0.105834f,  0.143951f,  0.144856f,
    0.130171f,  0.096282f,  0.024506f,  -0.043964f, -0.072160f, -0.062731f,
    -0.031867f, -0.015134f, -0.000172f, 0.038848f,  0.058379f,  0.070135f,
    0.106402f,  0.144203f,  0.121752f,  0.010315f,  -0.103708f, -0.106027f,
    0.017266f,  0.186814f,  0.309223f,  0.357667f,  0.367292f,  0.368400f,
    0.364743f,  0.336151f,  0.276919f,  0.200977f,  0.108399f,  -0.006727f,
    -0.139975f, -0.272929f, -0.391060f, -0.501602f, -0.602821f, -0.686156f,
    -0.733709f, -0.738522f, -0.711317f, -0.643189f, -0.536864f, -0.418492f,
    -0.286523f, -0.161318f, -0.095189f, -0.060592f, 0.016938f,  0.084833f,
    0.162293f,  0.233681f,  -0.179895f, -0.176220f, -0.168752f, -0.166889f,
    -0.118829f, -0.041667f, 0.030880f,  0.060983f,  0.043897f,  0.002629f,
    0.015072f,  0.059594f,  0.036121f,  0.025896f,  0.080568f,  0.111716f,
    0.085865f,  0.046042f,  0.019130f,  0.001020f,  0.010888f,  0.042532f,
    0.052970f,  0.069646f,  0.097778f,  0.095982f,  0.052844f,  0.005759f,
    0.017649f,  0.084400f,  0.140301f,  0.153098f,  0.139736f,  0.108180f,
    0.054645f,  0.012110f,  -0.041563f, -0.126811f, -0.219258f, -0.240742f,
    -0.242467f, -0.282560f, -0.264985f, -0.210342f, -0.196220f, -0.190548f,
    -0.173635f, -0.092300f, -0.037041f, -0.006696f, -0.031842f, 0.027153f,
    -0.012979f, -0.154690f, -0.099768f, -0.071030f, -0.189471f, -0.151985f,
    -0.106728f, -0.075107f, -0.027620f, 0.034187f,  0.091448f,  0.101243f,
    0.063279f,  0.008417f,  0.005355f,  0.045835f,  0.025766f,  -0.009535f,
    0.006347f,  0.015772f,  -0.011925f, -0.033200f, -0.014487f, 0.003556f,
    0.014935f,  0.027194f,  0.012712f,  0.009091f,  0.039895f,  0.058746f,
    0.030564f,  -0.018113f, -0.029700f, 0.008111f,  0.037551f,  0.036479f,
    0.033424f,  0.024830f,  -0.009052f, -0.032186f, -0.056877f, -0.102169f,
    -0.167094f, -0.173581f, -0.175766f, -0.227562f, -0.215493f, -0.181575f,
    -0.206183f, -0.213749f, -0.218960f, -0.177747f, -0.133227f, -0.105005f,
    -0.138026f, -0.090638f, -0.106402f, -0.194728f, -0.108520f, -0.032150f,
    -0.163771f, -0.110595f, -0.049393f, -0.023450f, -0.006956f, 0.023050f,
    0.057391f,  0.066939f,  0.037841f,  -0.019753f, -0.026195f, 0.021906f,
    0.015346f,  -0.022538f, -0.018009f, -0.017770f, -0.055936f, -0.073013f,
    -0.024369f, 0.011969f,  0.013368f,  0.001585f,  -0.030645f, -0.052598f,
    -0.034875f, -0.019285f, -0.045709f, -0.091648f, -0.109798f, -0.081227f,
    -0.061873f, -0.065550f, -0.052323f, -0.049896f, -0.082488f, -0.103753f,
    -0.115096f, -0.133975f, -0.190024f, -0.190210f, -0.171631f, -0.215058f,
    -0.207435f, -0.183438f, -0.210111f, -0.198832f, -0.222379f, -0.211926f,
    -0.168605f, -0.139747f, -0.175183f, -0.120641f, -0.104227f, -0.158039f,
    -0.061586f, 0.047766f,  -0.058824f, -0.006404f, 0.063029f,  0.085335f,
    0.072858f,  0.066033f,  0.069970f,  0.069545f,  0.028693f,  -0.058793f,
    -0.087812f, -0.042600f, -0.049055f, -0.108419f, -0.114628f, -0.100446f,
    -0.124450f, -0.126148f, -0.058126f, -0.018745f, -0.026610f, -0.043532f,
    -0.081118f, -0.117147f, -0.114084f, -0.094631f, -0.092213f, -0.106250f,
    -0.117165f, -0.091202f, -0.070066f, -0.071666f, -0.043779f, -0.025685f,
    -0.052740f, -0.067198f, -0.069764f, -0.072311f, -0.095908f, -0.051150f,
    0.025850f,  0.018854f,  0.032005f,  0.049508f,  0.026354f,  0.064919f,
    0.030387f,  -0.015702f, -0.028657f, -0.031016f, -0.071778f, -0.007627f,
    0.038961f,  0.003754f,  0.088264f,  0.202525f,  0.243003f,  0.207300f,
    0.221334f,  0.234879f,  0.219949f,  0.196730f,  0.177821f,  0.172083f,
    0.122602f,  0.011488f,  -0.031086f, 0.022295f,  0.031893f,  -0.027649f,
    -0.034802f, 0.003833f,  0.008499f,  0.018370f,  0.092073f,  0.126828f,
    0.111941f,  0.092599f,  0.060240f,  0.049296f,  0.089587f,  0.146949f,
    0.186239f,  0.197925f,  0.185882f,  0.171926f,  0.141358f,  0.102651f,
    0.111072f,  0.115507f,  0.076349f,  0.061451f,  0.069668f,  0.079727f,
    0.102023f,  0.228975f,  0.410918f,  0.486163f,  0.533359f,  0.540878f,
    0.493134f,  0.520546f,  0.458225f,  0.338400f,  0.237098f,  0.178028f,
    0.132683f,  0.222231f,  0.296541f,  0.250397f,  0.311614f,  0.407787f,
    -0.019686f, -0.083724f, -0.087397f, -0.041185f, 0.022260f,  0.050568f,
    0.031528f,  0.025934f,  0.075324f,  0.113822f,  0.091248f,  0.033077f,
    -0.003394f, -0.009104f, 0.000098f,  0.010360f,  0.030894f,  0.104308f,
    0.207047f,  0.285371f,  0.313954f,  0.270617f,  0.170075f,  0.070489f,
    -0.019326f, -0.119088f, -0.211785f, -0.231955f, -0.191643f, -0.133286f,
    -0.061557f, -0.021292f, 0.009230f,  0.053925f,  0.092115f,  0.094009f,
    0.070702f,  0.082253f,  0.128073f,  0.174524f,  0.181403f,  0.141241f,
    0.076308f,  0.024408f,  0.037967f,  0.091707f,  -0.001842f, -0.015876f,
    0.002864f,  -0.011183f, 0.013113f,  -0.033823f, -0.175437f, -0.170453f,
    -0.250231f, -0.435356f, 0.071963f,  0.017723f,  0.018343f,  0.053159f,
    0.109387f,  0.137481f,  0.116382f,  0.099719f,  0.127122f,  0.139486f,
    0.096815f,  0.026851f,  -0.010694f, -0.012811f, -0.000844f, 0.013942f,
    0.041247f,  0.108992f,  0.188238f,  0.229902f,  0.230483f,  0.185600f,
    0.112935f,  0.047045f,  -0.012577f, -0.083287f, -0.144723f, -0.135358f,
    -0.085826f, -0.050539f, -0.017146f, -0.023716f, -0.030615f, 0.001798f,
    0.053430f,  0.072277f,  0.053040f,  0.064375f,  0.104937f,  0.138649f,
    0.144651f,  0.113189f,  0.061967f,  0.032665f,  0.043003f,  0.089982f,
    0.027373f,  0.024807f,  0.054400f,  0.054696f,  0.070919f,  0.039419f,
    -0.080164f, -0.072613f, -0.115264f, -0.268821f, 0.071172f,  0.022795f,
    0.018954f,  0.043154f,  0.079869f,  0.099973f,  0.088139f,  0.091296f,
    0.133201f,  0.130761f,  0.061642f,  -0.021269f, -0.054945f, -0.044677f,
    -0.023884f, -0.002653f, 0.028781f,  0.086235f,  0.141052f,  0.157905f,
    0.144884f,  0.103081f,  0.052379f,  0.017095f,  -0.018557f, -0.069044f,
    -0.100504f, -0.053408f, 0.017578f,  0.034929f,  0.016268f,  -0.043961f,
    -0.081208f, -0.056375f, -0.005054f, 0.016904f,  -0.003860f, -0.009875f,
    -0.003503f, 0.011127f,  0.024692f,  0.024842f,  0.013135f,  0.021283f,
    0.045666f,  0.074389f,  0.028939f,  0.025607f,  0.043598f,  0.057717f,
    0.073612f,  0.049662f,  -0.043228f, -0.002231f, 0.009471f,  -0.106510f,
    0.065572f,  0.004992f,  -0.034448f, -0.042220f, -0.024480f, -0.009524f,
    0.001139f,  0.047737f,  0.127142f,  0.130147f,  0.041953f,  -0.074300f,
    -0.131643f, -0.103478f, -0.052650f, -0.015225f, 0.036809f,  0.105314f,
    0.139880f,  0.118742f,  0.065450f,  -0.006443f, -0.071144f, -0.106069f,
    -0.119851f, -0.124327f, -0.087181f, 0.033237f,  0.157764f,  0.181963f,
    0.133636f,  0.039873f,  -0.022682f, -0.013654f, 0.021862f,  0.017081f,
    -0.050873f, -0.123815f, -0.182095f, -0.180050f, -0.132843f, -0.082847f,
    -0.064291f, -0.031153f, 0.032706f,  0.066882f,  0.034499f,  0.050761f,
    0.058991f,  0.060059f,  0.067732f,  0.042780f,  -0.015258f, 0.077032f,
    0.120920f,  0.011568f,  0.373891f,  0.321044f,  0.263359f,  0.218219f,
    0.207479f,  0.208700f,  0.210288f,  0.251958f,  0.331415f,  0.335211f,
    0.224627f,  0.062937f,  -0.029336f, 0.002544f,  0.064338f,  0.091037f,
    0.134097f,  0.189601f,  0.188858f,  0.114525f,  -0.011013f, -0.159757f,
    -0.280341f, -0.339716f, -0.339359f, -0.289992f, -0.176816f, 0.013597f,
    0.192154f,  0.257516f,  0.235661f,  0.162077f,  0.102735f,  0.094468f,
    0.107667f,  0.072390f,  -0.040678f, -0.186194f, -0.324636f, -0.343426f,
    -0.258342f, -0.138090f, -0.089785f, -0.038019f, 0.076324f,  0.138993f,
    0.126315f,  0.142172f,  0.123661f,  0.075183f,  0.040432f,  0.032501f,
    0.030385f,  0.168809f,  0.207449f,  0.074654f,  0.168950f,  0.092424f,
    0.027967f,  -0.003451f, -0.030608f, -0.024596f, -0.013430f, 0.001056f,
    -0.007963f, 0.004134f,  0.050609f,  0.061886f,  0.011994f,  -0.064097f,
    -0.110613f, -0.131983f, -0.184987f, -0.238906f, -0.213443f, -0.112419f,
    -0.012810f, -0.041308f, -0.184372f, -0.311583f, -0.293202f, -0.086819f,
    0.215578f,  0.502740f,  0.733455f,  0.763160f,  0.624274f,  0.351113f,
    0.066973f,  -0.162118f, -0.228551f, -0.199983f, -0.171120f, -0.127108f,
    -0.065103f, 0.018494f,  0.009971f,  0.012082f,  -0.039635f, -0.089918f,
    -0.102409f, -0.048185f, -0.034638f, -0.034392f, -0.007639f, -0.003470f,
    0.064446f,  0.058536f,  0.024248f,  0.072255f,  0.022894f,  -0.052129f,
    0.073060f,  0.016614f,  -0.025474f, -0.037643f, -0.053758f, -0.046814f,
    -0.043760f, -0.041015f, -0.039250f, -0.006716f, 0.045133f,  0.050056f,
    0.001793f,  -0.057086f, -0.078728f, -0.065247f, -0.071273f, -0.079707f,
    -0.036449f, 0.048398f,  0.130516f,  0.125710f,  0.058388f,  0.018212f,
    0.065605f,  0.209574f,  0.363740f,  0.433431f,  0.408244f,  0.256312f,
    0.057056f,  -0.148408f, -0.283074f, -0.344749f, -0.291128f, -0.206934f,
    -0.158075f, -0.096332f, -0.013442f, 0.068916f,  0.053921f,  0.057344f,
    0.015435f,  -0.028217f, -0.038203f, -0.011327f, -0.024656f, -0.029335f,
    0.004263f,  -0.014188f, 0.024138f,  0.020241f,  -0.003437f, 0.035613f,
    0.006109f,  -0.067385f, -0.015706f, -0.044789f, -0.049387f, -0.034863f,
    -0.035280f, -0.031626f, -0.050482f, -0.085232f, -0.088870f, -0.043090f,
    0.013215f,  0.026352f,  0.003441f,  -0.030329f, -0.040036f, -0.009969f,
    0.021286f,  0.041844f,  0.077955f,  0.123130f,  0.165976f,  0.170521f,
    0.166534f,  0.193132f,  0.255271f,  0.331639f,  0.341519f,  0.231807f,
    0.042531f,  -0.199883f, -0.386531f, -0.474207f, -0.434805f, -0.330098f,
    -0.190310f, -0.093180f, -0.055656f, -0.007232f, 0.047419f,  0.077783f,
    0.041916f,  0.069832f,  0.061811f,  0.036254f,  0.022707f,  0.027756f,
    -0.005060f, 0.000211f,  0.038036f,  -0.014328f, -0.002005f, -0.004460f,
    -0.030404f, 0.024267f,  0.024306f,  -0.046318f, -0.044402f, -0.053212f,
    -0.018666f, 0.034140f,  0.055725f,  0.053939f,  0.001260f,  -0.077655f,
    -0.108905f, -0.075173f, -0.025685f, -0.008397f, -0.012556f, -0.022070f,
    -0.016811f, 0.023973f,  0.071014f,  0.096425f,  0.106406f,  0.085139f,
    0.053225f,  0.021990f,  0.028620f,  0.073119f,  0.137228f,  0.184583f,
    0.117069f,  -0.084143f, -0.316530f, -0.519027f, -0.596739f, -0.527585f,
    -0.329844f, -0.101057f, 0.075435f,  0.135599f,  0.129082f,  0.152114f,
    0.157866f,  0.090191f,  -0.015567f, -0.000479f, 0.006892f,  0.001710f,
    0.005517f,  0.013661f,  -0.020038f, 0.004491f,  0.071529f,  0.008634f,
    0.009474f,  0.013334f,  -0.022734f, 0.020300f,  0.035352f,  -0.031772f,
    0.051526f,  0.018449f,  0.046546f,  0.118473f,  0.174250f,  0.189954f,
    0.132609f,  0.031786f,  -0.026144f, -0.022992f, -0.011163f, -0.022999f,
    -0.041345f, -0.052286f, -0.038747f, 0.023715f,  0.092058f,  0.113773f,
    0.092296f,  0.012684f,  -0.096134f, -0.193497f, -0.219777f, -0.180450f,
    -0.110639f, -0.061604f, -0.143544f, -0.360070f, -0.567325f, -0.683374f,
    -0.631536f, -0.412065f, -0.085619f, 0.231001f,  0.429553f,  0.456069f,
    0.413607f,  0.412747f,  0.376851f,  0.227198f,  0.036104f,  -0.012163f,
    -0.045156f, -0.073456f, -0.056772f, -0.024204f, -0.050667f, -0.015989f,
    0.073492f,  0.019130f,  0.030580f,  0.052404f,  -0.005765f, 0.020766f,
    0.033891f,  -0.034706f, -0.111843f, -0.101259f, -0.071977f, -0.030946f,
    0.012846f,  0.027200f,  0.012348f,  -0.015837f, -0.025627f, -0.022116f,
    -0.011155f, -0.001996f, -0.006267f, 0.012148f,  0.088181f,  0.191939f,
    0.260365f,  0.244351f,  0.188422f,  0.154724f,  0.149779f,  0.151992f,
    0.142399f,  0.106882f,  0.051592f,  0.016769f,  0.044249f,  0.126076f,
    0.208773f,  0.244276f,  0.259219f,  0.286678f,  0.294371f,  0.256930f,
    0.168795f,  0.015347f,  -0.158992f, -0.277200f, -0.281937f, -0.218312f,
    -0.158234f, -0.125993f, -0.097742f, -0.090388f, -0.164920f, -0.322726f,
    -0.458874f, -0.485929f, -0.485758f, -0.539358f, -0.614879f, -0.710356f,
    -0.789361f, -0.678874f, -0.521889f, -0.540412f, -0.072511f, -0.051120f,
    -0.011770f, 0.037738f,  0.083460f,  0.088027f,  0.069642f,  0.042082f,
    0.024956f,  0.017796f,  0.025208f,  0.036635f,  0.038275f,  0.056344f,
    0.115319f,  0.191924f,  0.243955f,  0.228774f,  0.183590f,  0.157320f,
    0.151006f,  0.154301f,  0.157455f,  0.140366f,  0.095841f,  0.055729f,
    0.065112f,  0.124332f,  0.184904f,  0.208032f,  0.219962f,  0.247597f,
    0.263456f,  0.242947f,  0.175889f,  0.045182f,  -0.107275f, -0.210956f,
    -0.212266f, -0.147628f, -0.085822f, -0.055423f, -0.029242f, -0.020435f,
    -0.087164f, -0.234632f, -0.365636f, -0.392396f, -0.394597f, -0.444485f,
    -0.515742f, -0.605111f, -0.669592f, -0.552434f, -0.399653f, -0.401732f,
    -0.077801f, -0.043166f, 0.008386f,  0.062375f,  0.102465f,  0.105175f,
    0.093960f,  0.083869f,  0.077164f,  0.059742f,  0.053796f,  0.063728f,
    0.071558f,  0.086225f,  0.121172f,  0.167667f,  0.209796f,  0.205754f,
    0.170776f,  0.137665f,  0.112458f,  0.107302f,  0.129292f,  0.145636f,
    0.122837f,  0.071920f,  0.043467f,  0.064286f,  0.107277f,  0.129135f,
    0.143848f,  0.178872f,  0.212362f,  0.214237f,  0.171447f,  0.067565f,
    -0.062589f, -0.163933f, -0.178865f, -0.119731f, -0.051697f, -0.018211f,
    0.001280f,  0.006871f,  -0.050257f, -0.172591f, -0.282208f, -0.310578f,
    -0.319314f, -0.361442f, -0.416709f, -0.486437f, -0.522046f, -0.393795f,
    -0.239744f, -0.224134f, -0.184845f, -0.126071f, -0.042732f, 0.034990f,
    0.084249f,  0.095229f,  0.084940f,  0.079653f,  0.072670f,  0.040794f,
    0.019221f,  0.026516f,  0.044287f,  0.062231f,  0.080008f,  0.097665f,
    0.127321f,  0.134747f,  0.110713f,  0.072362f,  0.031013f,  0.019991f,
    0.063239f,  0.120568f,  0.123400f,  0.059172f,  -0.010173f, -0.031630f,
    -0.012654f, 0.014133f,  0.050077f,  0.108123f,  0.161347f,  0.181869f,
    0.166243f,  0.090424f,  -0.021672f, -0.119612f, -0.150540f, -0.107090f,
    -0.035571f, 0.008594f,  0.030743f,  0.033571f,  -0.019355f, -0.121793f,
    -0.211874f, -0.251875f, -0.281617f, -0.320625f, -0.352137f, -0.378789f,
    -0.368988f, -0.234374f, -0.085069f, -0.057456f, -0.390666f, -0.311807f,
    -0.189353f, -0.068636f, 0.012837f,  0.045865f,  0.040537f,  0.026687f,
    0.002915f,  -0.051094f, -0.094507f, -0.098220f, -0.074156f, -0.044383f,
    -0.029559f, -0.024512f, 0.003611f,  0.027060f,  0.017130f,  -0.027977f,
    -0.084314f, -0.092613f, -0.024478f, 0.063209f,  0.080877f,  0.004008f,
    -0.096512f, -0.148198f, -0.143981f, -0.102614f, -0.029282f, 0.068697f,
    0.158356f,  0.209712f,  0.217930f,  0.156781f,  0.045923f,  -0.059084f,
    -0.105785f, -0.081033f, -0.009571f, 0.059474f,  0.098438f,  0.093229f,
    0.034713f,  -0.058434f, -0.144020f, -0.207829f, -0.271766f, -0.316917f,
    -0.324021f, -0.309429f, -0.254339f, -0.106705f, 0.033328f,  0.059106f,
    0.252914f,  0.243555f,  0.220448f,  0.164870f,  0.100763f,  0.061984f,
    0.102996f,  0.156925f,  0.138152f,  0.002783f,  -0.170057f, -0.251597f,
    -0.204612f, -0.100774f, -0.016478f, -0.034815f, -0.164958f, -0.274876f,
    -0.247654f, -0.094067f, 0.079576f,  0.161697f,  0.118625f,  -0.001614f,
    -0.108226f, -0.122031f, -0.041557f, 0.053190f,  0.093220f,  0.079815f,
    0.013547f,  -0.058037f, -0.090870f, -0.089887f, -0.060037f, -0.025557f,
    -0.024836f, 0.004317f,  0.067617f,  0.103147f,  0.097331f,  0.069142f,
    0.085793f,  0.120438f,  0.050405f,  -0.010043f, 0.033480f,  0.000266f,
    -0.055354f, -0.016752f, 0.063111f,  0.065802f,  0.072899f,  0.141660f,
    0.057734f,  -0.096683f, 0.259834f,  0.256520f,  0.223882f,  0.150360f,
    0.054857f,  -0.011228f, 0.009405f,  0.053785f,  0.043478f,  -0.063821f,
    -0.206925f, -0.261906f, -0.185018f, -0.044164f, 0.077697f,  0.083138f,
    -0.043559f, -0.168738f, -0.161747f, -0.026762f, 0.133252f,  0.203212f,
    0.145105f,  0.012204f,  -0.105006f, -0.124968f, -0.042942f, 0.057452f,
    0.094218f,  0.061385f,  -0.018047f, -0.083767f, -0.109351f, -0.104495f,
    -0.067827f, -0.025011f, -0.019989f, -0.005039f, 0.030909f,  0.047724f,
    0.033260f,  0.004281f,  0.024120f,  0.055028f,  -0.021844f, -0.066793f,
    -0.014113f, -0.040867f, -0.073000f, -0.039049f, 0.026097f,  0.038056f,
    0.037518f,  0.101931f,  0.037543f,  -0.113383f, 0.323588f,  0.316688f,
    0.271188f,  0.164585f,  0.023299f,  -0.083886f, -0.092943f, -0.055853f,
    -0.061800f, -0.157380f, -0.279137f, -0.301896f, -0.174390f, 0.037797f,
    0.223745f,  0.254175f,  0.107955f,  -0.067322f, -0.107198f, 0.008383f,
    0.171153f,  0.245696f,  0.178642f,  0.026820f,  -0.113783f, -0.152216f,
    -0.076080f, 0.019928f,  0.048205f,  0.010545f,  -0.058904f, -0.103748f,
    -0.114851f, -0.107745f, -0.077653f, -0.042317f, -0.039522f, -0.029995f,
    -0.000977f, 0.024496f,  0.020194f,  -0.010857f, 0.003640f,  0.027686f,
    -0.062058f, -0.107847f, -0.068967f, -0.089880f, -0.083426f, -0.037334f,
    0.005264f,  0.018142f,  0.018509f,  0.069027f,  -0.008824f, -0.175355f,
    0.387982f,  0.364270f,  0.296256f,  0.150496f,  -0.046724f, -0.207961f,
    -0.257642f, -0.229886f, -0.222375f, -0.304953f, -0.411666f, -0.398441f,
    -0.205637f, 0.092276f,  0.356260f,  0.419724f,  0.246403f,  0.008980f,
    -0.082790f, 0.017581f,  0.195017f,  0.294897f,  0.234029f,  0.064546f,
    -0.103312f, -0.168959f, -0.113541f, -0.025914f, 0.016341f,  0.006301f,
    -0.030173f, -0.051364f, -0.055437f, -0.055449f, -0.044372f, -0.022629f,
    -0.019287f, -0.018266f, -0.002725f, 0.037758f,  0.050103f,  0.017346f,
    0.008492f,  0.014083f,  -0.076460f, -0.128916f, -0.113736f, -0.131628f,
    -0.084618f, -0.012267f, 0.017325f,  0.034001f,  0.043606f,  0.063315f,
    -0.064466f, -0.260803f, 0.565108f,  0.491634f,  0.367361f,  0.161459f,
    -0.107433f, -0.336289f, -0.441085f, -0.435870f, -0.420406f, -0.482090f,
    -0.568652f, -0.523591f, -0.274259f, 0.095069f,  0.412160f,  0.483256f,
    0.271403f,  -0.014892f, -0.133915f, -0.024223f, 0.190821f,  0.324710f,
    0.273344f,  0.095093f,  -0.087661f, -0.175643f, -0.147463f, -0.082908f,
    -0.041817f, -0.033882f, -0.042405f, -0.035753f, -0.029763f, -0.040160f,
    -0.049288f, -0.038005f, -0.027169f, -0.025332f, -0.023288f, 0.019348f,
    0.031118f,  -0.009671f, -0.026860f, -0.014111f, -0.081048f, -0.126649f,
    -0.124715f, -0.135449f, -0.058624f, 0.041838f,  0.085868f,  0.115954f,
    0.121258f,  0.084376f,  -0.101501f, -0.319930f, -0.170243f, -0.182428f,
    -0.130539f, -0.018140f, 0.098844f,  0.185259f,  0.199381f,  0.165143f,
    0.129716f,  0.048999f,  -0.051269f, -0.079520f, -0.025610f, 0.033284f,
    0.056218f,  0.066268f,  0.071782f,  0.037413f,  -0.033095f, -0.059946f,
    0.006442f,  0.140259f,  0.266031f,  0.316092f,  0.299599f,  0.279873f,
    0.271838f,  0.241056f,  0.217242f,  0.212179f,  0.186101f,  0.133838f,
    0.078366f,  0.073084f,  0.086255f,  0.086021f,  0.121318f,  0.184273f,
    0.160884f,  0.105297f,  0.065065f,  -0.000212f, -0.069200f, -0.134291f,
    -0.171651f, -0.220990f, -0.262051f, -0.224214f, -0.222358f, -0.278795f,
    -0.319107f, -0.297220f, -0.275034f, -0.173069f, -0.157335f, -0.131649f,
    -0.136631f, -0.131721f, -0.066828f, 0.047034f,  0.167590f,  0.241941f,
    0.237444f,  0.194336f,  0.164318f,  0.096183f,  0.014608f,  0.004773f,
    0.064766f,  0.120045f,  0.137120f,  0.125156f,  0.091992f,  0.017864f,
    -0.078506f, -0.116507f, -0.054738f, 0.070388f,  0.183140f,  0.231385f,
    0.228783f,  0.218403f,  0.209659f,  0.176517f,  0.159615f,  0.173674f,
    0.159981f,  0.109490f,  0.054501f,  0.058125f,  0.081051f,  0.077701f,
    0.113155f,  0.194455f,  0.205559f,  0.175407f,  0.180409f,  0.170246f,
    0.132421f,  0.093900f,  0.084679f,  0.063222f,  0.011372f,  -0.019214f,
    -0.052000f, -0.092970f, -0.108907f, -0.061395f, -0.031899f, 0.027564f,
    0.072905f,  0.170471f,  -0.197536f, -0.190407f, -0.129142f, -0.021770f,
    0.093975f,  0.160336f,  0.152456f,  0.115029f,  0.096971f,  0.045217f,
    -0.018954f, -0.021049f, 0.036076f,  0.092123f,  0.113922f,  0.102051f,
    0.062927f,  -0.019334f, -0.124334f, -0.171661f, -0.119862f, -0.013326f,
    0.061574f,  0.069200f,  0.047321f,  0.036302f,  0.035608f,  0.021322f,
    0.030667f,  0.059993f,  0.049831f,  0.002308f,  -0.040239f, -0.022596f,
    -0.002159f, -0.026760f, -0.011801f, 0.067754f,  0.091597f,  0.058368f,
    0.077951f,  0.107663f,  0.098268f,  0.081136f,  0.102165f,  0.104755f,
    0.061889f,  0.015125f,  -0.022199f, -0.039596f, -0.025968f, 0.031818f,
    0.068002f,  0.113717f,  0.184077f,  0.335697f,  -0.200261f, -0.213161f,
    -0.179627f, -0.084805f, 0.033884f,  0.107734f,  0.114693f,  0.089408f,
    0.085801f,  0.052336f,  -0.015805f, -0.045165f, -0.014528f, 0.025577f,
    0.032705f,  0.019327f,  0.004163f,  -0.045559f, -0.114051f, -0.122852f,
    -0.047018f, 0.041809f,  0.050635f,  -0.022716f, -0.100456f, -0.133809f,
    -0.121656f, -0.093958f, -0.043764f, 0.004140f,  0.003888f,  -0.031566f,
    -0.056907f, -0.038269f, -0.041628f, -0.101397f, -0.124810f, -0.077144f,
    -0.074059f, -0.131603f, -0.122389f, -0.083643f, -0.092877f, -0.117562f,
    -0.068291f, -0.021514f, -0.034790f, -0.064188f, -0.082465f, -0.068894f,
    -0.016662f, 0.035173f,  0.050022f,  0.068414f,  0.131890f,  0.291933f,
    -0.358543f, -0.362191f, -0.332190f, -0.238832f, -0.110910f, -0.020626f,
    0.000913f,  -0.006637f, 0.010419f,  -0.016042f, -0.108089f, -0.171541f,
    -0.154073f, -0.103336f, -0.078280f, -0.065508f, -0.036003f, -0.026998f,
    -0.026952f, 0.033936f,  0.151433f,  0.229504f,  0.172858f,  0.011255f,
    -0.139993f, -0.212727f, -0.197838f, -0.133055f, -0.045604f, 0.020727f,
    0.036472f,  0.022899f,  0.025496f,  0.053628f,  0.028559f,  -0.069180f,
    -0.136840f, -0.135164f, -0.172945f, -0.260151f, -0.264529f, -0.233856f,
    -0.259721f, -0.298661f, -0.215140f, -0.109030f, -0.080388f, -0.067975f,
    -0.044110f, -0.007317f, 0.070801f,  0.110688f,  0.073619f,  0.023792f,
    0.040823f,  0.163210f,  -0.275151f, -0.350500f, -0.447975f, -0.496836f,
    -0.475328f, -0.420216f, -0.355503f, -0.285070f, -0.197645f, -0.138155f,
    -0.110035f, -0.101181f, -0.084090f, -0.033023f, 0.025827f,  0.049479f,
    0.057006f,  0.061096f,  0.059722f,  0.055891f,  0.033292f,  -0.007253f,
    -0.013396f, 0.027465f,  0.056277f,  0.058459f,  0.062581f,  0.051080f,
    -0.016246f, -0.030961f, 0.047556f,  0.089787f,  0.046252f,  0.012813f,
    0.035359f,  0.067476f,  0.053250f,  0.034102f,  0.059852f,  0.043857f,
    0.050204f,  0.027090f,  0.019271f,  -0.016156f, -0.057875f, 0.030063f,
    0.023748f,  0.053654f,  0.058507f,  0.039236f,  -0.023766f, 0.021975f,
    -0.013976f, -0.023491f, -0.012937f, -0.030815f, -0.253466f, -0.317161f,
    -0.403289f, -0.454366f, -0.458701f, -0.428257f, -0.374432f, -0.305819f,
    -0.232354f, -0.188132f, -0.166510f, -0.160949f, -0.149281f, -0.118491f,
    -0.082335f, -0.075095f, -0.078028f, -0.068670f, -0.045798f, -0.012527f,
    0.009936f,  0.005682f,  0.007579f,  0.034417f,  0.054556f,  0.057220f,
    0.055791f,  0.033176f,  -0.032117f, -0.040358f, 0.029362f,  0.060833f,
    0.014052f,  -0.025728f, -0.016265f, 0.005859f,  0.000453f,  -0.008025f,
    0.024584f,  0.022714f,  0.018111f,  -0.010862f, 0.009638f,  0.010704f,
    -0.033701f, 0.009581f,  -0.000114f, 0.023833f,  0.006656f,  0.004891f,
    -0.017300f, 0.040425f,  0.004204f,  0.008121f,  -0.010089f, -0.057531f,
    -0.031565f, -0.080565f, -0.146089f, -0.195781f, -0.221897f, -0.234410f,
    -0.213235f, -0.172521f, -0.138663f, -0.124460f, -0.121721f, -0.120574f,
    -0.102085f, -0.077601f, -0.065754f, -0.087901f, -0.114657f, -0.112640f,
    -0.082424f, -0.030869f, 0.013543f,  0.024557f,  0.026358f,  0.042828f,
    0.060195f,  0.071920f,  0.079914f,  0.063748f,  0.011390f,  0.021667f,
    0.090672f,  0.109084f,  0.063553f,  0.003254f,  -0.037328f, -0.045157f,
    -0.046808f, -0.051932f, -0.029565f, -0.011189f, -0.010709f, -0.033682f,
    0.018468f,  0.054759f,  0.017002f,  0.041832f,  0.030214f,  0.014835f,
    -0.008180f, 0.001444f,  -0.013397f, 0.034927f,  0.035125f,  0.037525f,
    -0.018016f, -0.069034f, 0.242548f,  0.209596f,  0.160565f,  0.118368f,
    0.078161f,  0.036143f,  0.018439f,  0.019271f,  0.019078f,  0.010383f,
    0.002434f,  -0.004451f, 0.003413f,  0.006264f,  -0.012599f, -0.056802f,
    -0.086824f, -0.059437f, -0.001994f, 0.055487f,  0.088931f,  0.081672f,
    0.060679f,  0.045941f,  0.033332f,  0.021216f,  0.025894f,  0.035994f,
    0.021389f,  0.051600f,  0.107641f,  0.104770f,  0.067747f,  0.015908f,
    -0.045912f, -0.063617f, -0.046749f, -0.047914f, -0.031598f, 0.018490f,
    0.033306f,  0.005448f,  0.059961f,  0.090288f,  0.049339f,  0.045829f,
    0.015187f,  -0.031411f, -0.022318f, 0.017195f,  -0.015066f, -0.009982f,
    0.011313f,  0.024123f,  0.001931f,  0.005578f,  0.844757f,  0.768786f,
    0.694942f,  0.638763f,  0.575280f,  0.504550f,  0.456214f,  0.430293f,
    0.412160f,  0.389078f,  0.371026f,  0.349072f,  0.326955f,  0.290195f,
    0.226523f,  0.142701f,  0.093167f,  0.135995f,  0.217759f,  0.270113f,
    0.263821f,  0.196356f,  0.094086f,  -0.013701f, -0.116467f, -0.207909f,
    -0.264683f, -0.288276f, -0.310040f, -0.269154f, -0.202100f, -0.186222f,
    -0.194836f, -0.211399f, -0.233367f, -0.189950f, -0.092758f, -0.046295f,
    -0.022667f, 0.039329f,  0.058637f,  0.050164f,  0.145574f,  0.189067f,
    0.112800f,  0.058115f,  -0.009911f, -0.087689f, -0.061664f, -0.008993f,
    -0.052399f, -0.071020f, -0.055641f, -0.025952f, 0.026182f,  0.104757f,
    -0.354545f, -0.242263f, -0.098050f, 0.017838f,  0.101229f,  0.151477f,
    0.132432f,  0.052904f,  -0.026438f, -0.076180f, -0.084989f, -0.066123f,
    -0.063817f, -0.086402f, -0.112518f, -0.132832f, -0.140202f, -0.123104f,
    -0.058447f, 0.036118f,  0.105297f,  0.108623f,  0.045812f,  -0.042114f,
    -0.107518f, -0.127949f, -0.093886f, -0.021947f, 0.037820f,  0.039377f,
    0.036626f,  0.078270f,  0.143176f,  0.201595f,  0.197632f,  0.120303f,
    0.035303f,  -0.032430f, -0.066623f, 0.009660f,  0.090123f,  0.123052f,
    0.135320f,  0.019082f,  -0.181218f, -0.346547f, -0.464046f, -0.498443f,
    -0.429511f, -0.313353f, -0.087068f, 0.193969f,  0.337221f,  0.374329f,
    0.542202f,  0.719999f,  -0.296358f, -0.191676f, -0.060142f, 0.043283f,
    0.119564f,  0.167153f,  0.154775f,  0.086082f,  0.019715f,  -0.017206f,
    -0.016727f, 0.011815f,  0.024634f,  0.006394f,  -0.020439f, -0.040016f,
    -0.047012f, -0.040652f, -0.003172f, 0.060712f,  0.112864f,  0.122551f,
    0.079526f,  0.006081f,  -0.064831f, -0.111875f, -0.116613f, -0.085324f,
    -0.051961f, -0.048993f, -0.025027f, 0.049411f,  0.141519f,  0.228712f,
    0.248081f,  0.175034f,  0.071149f,  -0.024579f, -0.091661f, -0.045766f,
    0.009928f,  0.026113f,  0.036599f,  -0.061899f, -0.226727f, -0.353214f,
    -0.455811f, -0.483051f, -0.382438f, -0.242767f, -0.028672f, 0.230506f,
    0.372617f,  0.405059f,  0.542501f,  0.697049f,  -0.223086f, -0.136351f,
    -0.026113f, 0.063288f,  0.124273f,  0.159311f,  0.150182f,  0.095128f,
    0.044212f,  0.020385f,  0.023710f,  0.049782f,  0.063197f,  0.050919f,
    0.029183f,  0.011281f,  0.004408f,  -0.001134f, 0.007136f,  0.039234f,
    0.077356f,  0.096471f,  0.074375f,  0.011316f,  -0.065079f, -0.128751f,
    -0.162606f, -0.168460f, -0.164723f, -0.164039f, -0.111331f, 0.007888f,
    0.145528f,  0.273979f,  0.327965f,  0.271938f,  0.154416f,  0.025699f,
    -0.082313f, -0.079051f, -0.051299f, -0.059969f, -0.069909f, -0.164118f,
    -0.302443f, -0.393213f, -0.469627f, -0.475667f, -0.339419f, -0.158334f,
    0.053028f,  0.269432f,  0.384328f,  0.404164f,  0.512244f,  0.638022f,
    -0.148650f, -0.083681f, -0.002062f, 0.066945f,  0.109983f,  0.127066f,
    0.109766f,  0.059698f,  0.019953f,  0.007182f,  0.016697f,  0.043808f,
    0.060498f,  0.059318f,  0.045015f,  0.020706f,  -0.001021f, -0.028879f,
    -0.051160f, -0.042676f, -0.008121f, 0.020439f,  0.009498f,  -0.041992f,
    -0.109913f, -0.174502f, -0.223361f, -0.250620f, -0.254569f, -0.242309f,
    -0.165175f, -0.012658f, 0.160988f,  0.324156f,  0.414345f,  0.382642f,
    0.264295f,  0.118815f,  -0.021606f, -0.067123f, -0.067796f, -0.097199f,
    -0.129174f, -0.230281f, -0.357805f, -0.434160f, -0.494509f, -0.473668f,
    -0.304287f, -0.090067f, 0.113771f,  0.275176f,  0.345870f,  0.348498f,
    0.435984f,  0.537398f,  -0.066632f, -0.016715f, 0.044399f,  0.092206f,
    0.111167f,  0.108378f,  0.077888f,  0.023644f,  -0.015506f, -0.023293f,
    -0.014418f, 0.000961f,  0.011945f,  0.021526f,  0.021717f,  -0.001880f,
    -0.034893f, -0.085702f, -0.140266f, -0.156839f, -0.126124f, -0.088967f,
    -0.092267f, -0.136881f, -0.198665f, -0.262526f, -0.317780f, -0.352973f,
    -0.353939f, -0.321645f, -0.220062f, -0.043009f, 0.156649f,  0.344329f,
    0.457047f,  0.441304f,  0.326627f,  0.176992f,  0.020547f,  -0.060424f,
    -0.084553f, -0.125593f, -0.171360f, -0.282355f, -0.409531f, -0.490873f,
    -0.555281f, -0.525667f, -0.340598f, -0.111191f, 0.085062f,  0.205913f,
    0.245386f,  0.249782f,  0.333737f,  0.420838f,  -0.107085f, -0.048749f,
    -0.000819f, 0.004757f,  -0.065795f, -0.052113f, 0.045891f,  0.062729f,
    0.027151f,  0.020123f,  0.020936f,  -0.027779f, -0.038515f, 0.021739f,
    0.001542f,  -0.059426f, -0.058645f, -0.039685f, -0.031678f, -0.020083f,
    0.007829f,  0.036393f,  0.039111f,  -0.000107f, 0.014973f,  0.056234f,
    0.018308f,  -0.026519f, 0.060362f,  0.099850f,  0.014287f,  0.028607f,
    0.043120f,  0.028359f,  -0.009339f, -0.042127f, -0.038035f, -0.013727f,
    -0.008309f, 0.000364f,  -0.037062f, -0.016642f, -0.045898f, -0.082215f,
    -0.002987f, -0.021055f, 0.017204f,  0.046394f,  0.038104f,  -0.035212f,
    -0.087495f, -0.088442f, -0.013708f, -0.058247f, -0.004145f, 0.046353f,
    -0.052272f, -0.027591f, -0.038263f, -0.036638f, -0.103836f, -0.130970f,
    -0.049049f, -0.008766f, -0.000872f, -0.001380f, -0.022022f, -0.069658f,
    -0.071896f, 0.004585f,  -0.004417f, -0.059622f, -0.037058f, -0.006522f,
    -0.009285f, 0.004734f,  0.045839f,  0.073451f,  0.057959f,  0.009701f,
    0.022161f,  0.052956f,  0.013310f,  -0.055949f, -0.026243f, 0.007293f,
    -0.063860f, -0.044878f, -0.028122f, -0.014370f, -0.002981f, -0.008343f,
    0.002651f,  0.025848f,  0.015518f,  0.025373f,  -0.003261f, -0.001060f,
    -0.021100f, -0.047463f, 0.013655f,  -0.017012f, 0.019311f,  0.028078f,
    0.046680f,  0.058555f,  0.067527f,  0.036799f,  0.070530f,  -0.042100f,
    -0.043412f, -0.002348f, 0.163892f,  0.152714f,  0.096972f,  0.045904f,
    -0.042128f, -0.126779f, -0.092044f, -0.055357f, -0.037398f, -0.027441f,
    -0.031614f, -0.063511f, -0.075072f, -0.023029f, -0.052283f, -0.119517f,
    -0.081044f, -0.027489f, -0.042562f, -0.043523f, -0.000995f, 0.030836f,
    0.030403f,  -0.000447f, 0.003855f,  0.019554f,  -0.016900f, -0.086737f,
    -0.066427f, -0.008550f, -0.044183f, -0.034843f, -0.050081f, -0.049455f,
    -0.004691f, 0.009335f,  0.005009f,  0.023809f,  0.013627f,  0.040633f,
    0.024586f,  0.001354f,  -0.025530f, -0.032323f, 0.005400f,  -0.053574f,
    -0.037769f, -0.057268f, -0.021254f, 0.009406f,  0.073591f,  0.058341f,
    0.067864f,  -0.007162f, 0.015270f,  0.020781f,  0.572592f,  0.585537f,
    0.603561f,  0.589502f,  0.496581f,  0.371932f,  0.328651f,  0.314406f,
    0.296054f,  0.259259f,  0.192151f,  0.149655f,  0.161579f,  0.211282f,
    0.175701f,  0.091568f,  0.096817f,  0.099833f,  0.044578f,  0.041497f,
    0.124891f,  0.158567f,  0.111410f,  0.041340f,  0.032518f,  0.047588f,
    0.017596f,  -0.037969f, -0.021798f, 0.035969f,  0.027099f,  0.060710f,
    0.048207f,  0.031045f,  0.066831f,  0.101196f,  0.098160f,  0.111637f,
    0.082784f,  0.088845f,  0.101069f,  0.081517f,  0.044018f,  0.021369f,
    0.032346f,  -0.017013f, -0.042124f, -0.148957f, -0.157666f, -0.144842f,
    -0.044202f, -0.035524f, -0.030482f, -0.000221f, 0.058238f,  -0.039835f,
    -1.108427f, -0.870374f, -0.604086f, -0.409068f, -0.345131f, -0.353743f,
    -0.305460f, -0.199998f, -0.090643f, -0.061592f, -0.126818f, -0.169522f,
    -0.151909f, -0.096437f, -0.075983f, -0.068447f, -0.002286f, 0.016841f,
    -0.016346f, 0.020626f,  0.115194f,  0.076661f,  -0.106605f, -0.251386f,
    -0.231342f, -0.135985f, -0.078864f, -0.048019f, 0.008944f,  0.064835f,
    0.054914f,  0.083809f,  0.084279f,  0.041300f,  -0.028793f, -0.083726f,
    -0.133053f, -0.166618f, -0.244700f, -0.244679f, -0.145663f, -0.041657f,
    0.059544f,  0.098875f,  0.127180f,  0.119354f,  0.131457f,  0.063858f,
    0.105597f,  0.132855f,  0.211296f,  0.107364f,  0.057138f,  0.201253f,
    0.227738f,  -0.079245f, -0.161660f, -0.079337f, 0.032285f,  0.126331f,
    0.163230f,  0.180718f,  0.183194f,  0.186315f,  0.210958f,  0.245371f,
    0.261812f,  0.250538f,  0.222542f,  0.206733f,  0.218276f,  0.203559f,
    0.136327f,  0.072058f,  0.075280f,  0.129556f,  0.157838f,  0.145459f,
    0.120553f,  0.099216f,  0.104201f,  0.142818f,  0.218197f,  0.317093f,
    0.381313f,  0.367119f,  0.266628f,  0.139986f,  0.014674f,  -0.114046f,
    -0.195354f, -0.236876f, -0.252482f, -0.241914f, -0.156120f, -0.063483f,
    -0.052528f, -0.088307f, -0.183786f, -0.226661f, -0.274882f, -0.378881f,
    -0.354272f, -0.250560f, -0.182944f, -0.133453f, -0.101859f, -0.125365f,
    -0.145987f, -0.130199f, -0.101169f, -0.083785f, -0.221038f, -0.155965f,
    -0.074017f, -0.015981f, -0.010657f, -0.022642f, -0.035479f, -0.039093f,
    -0.017509f, 0.019627f,  0.057028f,  0.080337f,  0.087185f,  0.102337f,
    0.137390f,  0.137470f,  0.074534f,  0.004223f,  -0.007213f, 0.031238f,
    0.053633f,  0.040222f,  0.009173f,  -0.017516f, -0.017406f, 0.006897f,
    0.060756f,  0.142271f,  0.216610f,  0.247494f,  0.218546f,  0.171147f,
    0.116651f,  0.040849f,  -0.021805f, -0.066973f, -0.093656f, -0.116968f,
    -0.080502f, 0.005288f,  0.038080f,  0.032872f,  -0.024266f, -0.046617f,
    -0.072492f, -0.158452f, -0.148882f, -0.093250f, -0.067491f, -0.034972f,
    0.003692f,  -0.016916f, -0.045800f, -0.036752f, -0.008591f, 0.021204f,
    -0.170149f, -0.123674f, -0.075229f, -0.052731f, -0.078533f, -0.120379f,
    -0.152160f, -0.168135f, -0.155591f, -0.115515f, -0.059391f, -0.011687f,
    0.010264f,  0.030628f,  0.067539f,  0.067154f,  -0.005861f, -0.093440f,
    -0.125733f, -0.107760f, -0.094107f, -0.105714f, -0.139318f, -0.174697f,
    -0.187858f, -0.181929f, -0.154242f, -0.093692f, -0.009743f, 0.070935f,
    0.122484f,  0.166146f,  0.196236f,  0.191573f,  0.169801f,  0.137402f,
    0.095128f,  0.015857f,  -0.029999f, 0.011140f,  0.042844f,  0.073342f,
    0.071715f,  0.083059f,  0.079202f,  0.025629f,  0.034356f,  0.040351f,
    0.013968f,  0.019428f,  0.055568f,  0.044626f,  0.014864f,  0.018699f,
    0.053075f,  0.108079f,  -0.051584f, -0.016242f, 0.008446f,  -0.001424f,
    -0.057436f, -0.127517f, -0.177256f, -0.204927f, -0.200294f, -0.158444f,
    -0.091989f, -0.036571f, -0.020802f, -0.017222f, -0.001979f, -0.025822f,
    -0.123026f, -0.231808f, -0.281586f, -0.275209f, -0.262163f, -0.270085f,
    -0.307433f, -0.355141f, -0.381978f, -0.389473f, -0.375142f, -0.322281f,
    -0.225180f, -0.109755f, -0.008430f, 0.096446f,  0.199294f,  0.270812f,
    0.304623f,  0.289296f,  0.236266f,  0.117205f,  -0.002992f, -0.035276f,
    -0.035271f, 0.020289f,  0.066755f,  0.116846f,  0.139656f,  0.124146f,
    0.140665f,  0.111999f,  0.038531f,  0.005548f,  0.014596f,  0.008973f,
    -0.015268f, -0.011019f, 0.029964f,  0.109676f,  0.044250f,  0.073251f,
    0.081783f,  0.046117f,  -0.036623f, -0.136805f, -0.207995f, -0.246334f,
    -0.246958f, -0.206133f, -0.138843f, -0.081780f, -0.072553f, -0.087308f,
    -0.098674f, -0.152044f, -0.277256f, -0.403775f, -0.458742f, -0.447997f,
    -0.422562f, -0.419973f, -0.455255f, -0.508256f, -0.542337f, -0.548529f,
    -0.525964f, -0.461431f, -0.348749f, -0.214786f, -0.090254f, 0.040618f,
    0.184993f,  0.321336f,  0.416757f,  0.432430f,  0.381592f,  0.240767f,
    0.066472f,  -0.032988f, -0.071906f, -0.008143f, 0.072295f,  0.163401f,
    0.219904f,  0.227007f,  0.234695f,  0.165054f,  0.052883f,  -0.008401f,
    -0.020470f, -0.026136f, -0.050509f, -0.055224f, -0.021762f, 0.066941f,
    0.102343f,  0.001327f,  -0.106347f, -0.143310f, -0.139825f, -0.126862f,
    -0.069879f, -0.015413f, 0.004481f,  0.002442f,  0.013121f,  0.013262f,
    -0.024916f, -0.033497f, -0.002486f, 0.014008f,  -0.007671f, -0.034628f,
    -0.062056f, -0.090316f, -0.032439f, 0.186286f,  0.420031f,  0.495484f,
    0.399798f,  0.146929f,  -0.202633f, -0.450926f, -0.469455f, -0.300294f,
    -0.080286f, 0.087422f,  0.116801f,  0.073601f,  0.020289f,  -0.051842f,
    -0.094085f, -0.050020f, -0.022725f, -0.031911f, -0.012011f, 0.040327f,
    0.015474f,  0.000331f,  -0.004661f, -0.035968f, 0.029979f,  0.002648f,
    -0.047232f, -0.039381f, 0.013769f,  0.022051f,  0.005445f,  0.027942f,
    0.042751f,  -0.104882f, 0.137105f,  0.055103f,  -0.031452f, -0.053686f,
    -0.040175f, -0.007405f, 0.040721f,  0.053054f,  0.036802f,  0.034873f,
    0.066945f,  0.073146f,  0.012335f,  -0.033413f, -0.019797f, 0.005920f,
    0.013524f,  0.016868f,  -0.018121f, -0.128636f, -0.206510f, -0.095560f,
    0.139829f,  0.342273f,  0.441941f,  0.352354f,  0.071581f,  -0.210305f,
    -0.336439f, -0.289752f, -0.143856f, 0.004681f,  0.069488f,  0.081660f,
    0.066815f,  0.006961f,  -0.053584f, -0.044302f, -0.053123f, -0.076671f,
    -0.053048f, -0.005494f, -0.012995f, -0.008072f, 0.021748f,  -0.011744f,
    0.024546f,  0.012073f,  -0.029245f, -0.047187f, 0.004906f,  0.019010f,
    -0.016301f, 0.023412f,  0.067887f,  -0.055028f, 0.127699f,  0.053685f,
    -0.022602f, -0.048197f, -0.022759f, 0.030561f,  0.072163f,  0.050470f,
    -0.004853f, -0.007583f, 0.055423f,  0.074266f,  -0.012973f, -0.108982f,
    -0.117038f, -0.056381f, 0.023702f,  0.095030f,  0.077948f,  -0.082834f,
    -0.269886f, -0.291434f, -0.126045f, 0.140230f,  0.416643f,  0.519832f,
    0.358469f,  0.072615f,  -0.190538f, -0.334563f, -0.328499f, -0.226697f,
    -0.113698f, -0.010408f, 0.046739f,  0.026480f,  -0.034646f, -0.045790f,
    -0.062575f, -0.085747f, -0.068997f, -0.032973f, -0.019459f, -0.003147f,
    0.045676f,  0.034581f,  0.043798f,  0.030332f,  0.025843f,  -0.002627f,
    0.012857f,  0.030602f,  -0.007543f, 0.032857f,  0.090702f,  -0.014424f,
    0.173988f,  0.079646f,  -0.015462f, -0.060407f, -0.049206f, -0.003295f,
    0.026586f,  -0.022389f, -0.099225f, -0.089494f, 0.010434f,  0.047295f,
    -0.061305f, -0.184880f, -0.180590f, -0.060868f, 0.099408f,  0.243872f,
    0.265979f,  0.096017f,  -0.169258f, -0.363414f, -0.398078f, -0.212664f,
    0.165807f,  0.500424f,  0.589774f,  0.442468f,  0.125810f,  -0.186649f,
    -0.349313f, -0.349358f, -0.241006f, -0.077204f, 0.042927f,  0.066559f,
    0.025678f,  0.004107f,  -0.032923f, -0.047952f, -0.024289f, -0.018739f,
    -0.021780f, -0.024739f, 0.005609f,  0.010444f,  0.011183f,  -0.011077f,
    0.043018f,  0.037810f,  0.024451f,  0.033003f,  -0.013817f, 0.017214f,
    0.068405f,  -0.046775f, 0.266061f,  0.125830f,  -0.012721f, -0.087764f,
    -0.094373f, -0.050572f, -0.028678f, -0.085023f, -0.152995f, -0.112769f,
    0.009625f,  0.036157f,  -0.100005f, -0.237416f, -0.214046f, -0.053998f,
    0.143850f,  0.314403f,  0.360661f,  0.201003f,  -0.126848f, -0.521915f,
    -0.841108f, -0.839325f, -0.410650f, 0.195163f,  0.653124f,  0.807725f,
    0.617243f,  0.243203f,  -0.069968f, -0.225906f, -0.208480f, -0.065931f,
    0.067760f,  0.117544f,  0.110150f,  0.101297f,  0.041973f,  0.006051f,
    0.018398f,  -0.024202f, -0.072324f, -0.086625f, -0.052513f, -0.030568f,
    -0.022057f, -0.040119f, 0.071318f,  0.109894f,  0.076275f,  0.068203f,
    0.020590f,  0.002470f,  0.009977f,  -0.127523f, -0.117452f, -0.021455f,
    0.073439f,  0.096732f,  0.062401f,  -0.000765f, -0.030447f, -0.046965f,
    -0.073091f, -0.046806f, 0.008631f,  0.011467f,  -0.012299f, -0.009911f,
    -0.004534f, -0.018269f, -0.038006f, -0.058182f, -0.056513f, -0.014334f,
    0.057502f,  0.089027f,  0.063403f,  0.018021f,  -0.016992f, -0.015992f,
    0.029323f,  0.047906f,  0.013096f,  0.018329f,  0.033070f,  0.020292f,
    -0.047521f, -0.081365f, -0.022937f, 0.102899f,  0.086511f,  -0.068098f,
    -0.124880f, -0.139080f, -0.047653f, 0.068995f,  0.154210f,  0.202156f,
    0.252283f,  0.307758f,  0.354655f,  0.431663f,  0.411032f,  0.410181f,
    0.421176f,  0.323816f,  0.285018f,  0.319213f,  0.260978f,  0.117170f,
    -0.155132f, -0.058741f, 0.046604f,  0.100886f,  0.084983f,  0.034986f,
    0.019163f,  0.031856f,  0.029979f,  0.050816f,  0.086706f,  0.087503f,
    0.067083f,  0.059224f,  0.065014f,  0.065778f,  0.066109f,  0.051194f,
    0.021270f,  0.017730f,  0.070126f,  0.104563f,  0.074586f,  0.016602f,
    -0.026580f, -0.010316f, 0.061730f,  0.097148f,  0.064600f,  0.056350f,
    0.065892f,  0.070985f,  0.020462f,  -0.020314f, 0.009431f,  0.112312f,
    0.115491f,  0.014550f,  -0.015672f, -0.042709f, 0.007232f,  0.065300f,
    0.099420f,  0.133068f,  0.160890f,  0.180943f,  0.195036f,  0.236572f,
    0.213271f,  0.200369f,  0.194375f,  0.076485f,  0.004307f,  0.050644f,
    0.057595f,  -0.080235f, -0.245807f, -0.136637f, 0.016195f,  0.123456f,
    0.145188f,  0.107337f,  0.083641f,  0.092708f,  0.088670f,  0.086359f,
    0.096754f,  0.086029f,  0.055663f,  0.026656f,  0.024819f,  0.042710f,
    0.076640f,  0.092978f,  0.054740f,  0.013894f,  0.031245f,  0.055547f,
    0.050029f,  0.032102f,  0.014282f,  0.044467f,  0.115027f,  0.136459f,
    0.103422f,  0.093971f,  0.098312f,  0.097528f,  0.042576f,  0.000618f,
    0.016327f,  0.096457f,  0.092467f,  0.021508f,  0.022581f,  -0.027140f,
    -0.035014f, -0.029670f, -0.024950f, 0.002184f,  -0.010373f, -0.051250f,
    -0.091261f, -0.100900f, -0.143517f, -0.183883f, -0.197520f, -0.304655f,
    -0.374067f, -0.312202f, -0.231348f, -0.353992f, -0.404697f, -0.305316f,
    -0.110798f, 0.062158f,  0.134999f,  0.126377f,  0.102628f,  0.104903f,
    0.079791f,  0.040567f,  0.011282f,  -0.009759f, -0.033509f, -0.069733f,
    -0.070348f, -0.035791f, 0.013369f,  0.051335f,  0.016959f,  -0.049256f,
    -0.066684f, -0.063361f, -0.057190f, -0.040996f, -0.025965f, 0.017331f,
    0.075073f,  0.059323f,  -0.010900f, -0.028382f, -0.018268f, -0.011181f,
    -0.056156f, -0.089164f, -0.078280f, 0.003003f,  0.006887f,  -0.056203f,
    -0.046536f, -0.125191f, -0.172662f, -0.199636f, -0.205208f, -0.164866f,
    -0.187615f, -0.241440f, -0.291917f, -0.349285f, -0.417032f, -0.464986f,
    -0.468385f, -0.529477f, -0.574465f, -0.518036f, -0.411939f, -0.550474f,
    -0.179248f, -0.263954f, -0.197261f, -0.075042f, -0.003293f, 0.015632f,
    0.007531f,  0.030263f,  0.027298f,  -0.000605f, -0.030998f, -0.047557f,
    -0.060501f, -0.085230f, -0.078690f, -0.037207f, 0.022771f,  0.077923f,
    0.050259f,  -0.023712f, -0.056893f, -0.058709f, -0.044155f, -0.022576f,
    -0.010239f, 0.017224f,  0.045009f,  -0.006769f, -0.095135f, -0.108896f,
    -0.072916f, -0.029742f, -0.038803f, -0.056891f, -0.061542f, 0.013396f,
    0.045068f,  0.002169f,  0.022949f,  -0.044838f, -0.057356f, -0.042947f,
    0.000877f,  0.114846f,  0.169868f,  0.194432f,  0.194117f,  0.136342f,
    0.041771f,  0.038419f,  0.088244f,  0.029333f,  -0.071495f, -0.136909f,
    -0.162929f, -0.409735f, 0.207488f,  0.163914f,  0.094629f,  0.015260f,
    -0.048836f, -0.082932f, -0.113407f, -0.162025f, -0.217923f, -0.222545f,
    -0.135542f, -0.011856f, 0.047882f,  0.019087f,  -0.052227f, -0.121859f,
    -0.172510f, -0.211230f, -0.259450f, -0.327483f, -0.396153f, -0.427366f,
    -0.397766f, -0.314714f, -0.226140f, -0.167287f, -0.114492f, -0.041967f,
    0.053844f,  0.164016f,  0.279119f,  0.359125f,  0.364798f,  0.327000f,
    0.302731f,  0.314669f,  0.306890f,  0.244669f,  0.210754f,  0.221430f,
    0.211943f,  0.233661f,  0.275675f,  0.200856f,  0.101173f,  0.021585f,
    -0.051303f, -0.074172f, -0.062629f, -0.046411f, -0.026546f, 0.033008f,
    0.103629f,  0.037838f,  -0.074843f, -0.075872f, 0.238170f,  0.192757f,
    0.128748f,  0.056719f,  0.009512f,  -0.005056f, -0.022709f, -0.060754f,
    -0.111613f, -0.130612f, -0.075516f, 0.011307f,  0.046052f,  0.013574f,
    -0.036851f, -0.065443f, -0.072679f, -0.078446f, -0.110358f, -0.178233f,
    -0.257186f, -0.299229f, -0.278538f, -0.203592f, -0.122690f, -0.074397f,
    -0.043066f, -0.002205f, 0.061683f,  0.140938f,  0.225141f,  0.275218f,
    0.263254f,  0.223234f,  0.213969f,  0.251155f,  0.265674f,  0.215563f,
    0.174374f,  0.161123f,  0.131656f,  0.138653f,  0.164228f,  0.068986f,
    -0.047809f, -0.105164f, -0.125525f, -0.112122f, -0.088384f, -0.057824f,
    -0.028278f, 0.041591f,  0.140387f,  0.093374f,  -0.015379f, -0.012578f,
    0.214950f,  0.169820f,  0.107848f,  0.044432f,  0.011885f,  0.012307f,
    0.004695f,  -0.023204f, -0.060686f, -0.082159f, -0.051975f, 0.001755f,
    0.017472f,  -0.011423f, -0.038783f, -0.032326f, -0.003042f, 0.019442f,
    0.002388f,  -0.065924f, -0.153181f, -0.199789f, -0.175960f, -0.096706f,
    -0.010834f, 0.042054f,  0.065449f,  0.077172f,  0.094606f,  0.119245f,
    0.146830f,  0.151780f,  0.120609f,  0.087733f,  0.100673f,  0.162361f,
    0.194003f,  0.147798f,  0.090869f,  0.052301f,  -0.001483f, -0.013194f,
    -0.004894f, -0.110512f, -0.223781f, -0.241407f, -0.201634f, -0.155152f,
    -0.123431f, -0.084904f, -0.062344f, -0.000359f, 0.123762f,  0.119106f,
    0.035142f,  0.046749f,  0.185816f,  0.139109f,  0.069726f,  0.015818f,
    -0.001256f, 0.001240f,  -0.000222f, -0.014769f, -0.033984f, -0.042690f,
    -0.021325f, 0.005588f,  -0.001351f, -0.028940f, -0.047566f, -0.036573f,
    0.002060f,  0.039469f,  0.038230f,  -0.018936f, -0.098990f, -0.138795f,
    -0.105577f, -0.013980f, 0.087842f,  0.158314f,  0.190680f,  0.187631f,
    0.159151f,  0.120334f,  0.086001f,  0.046146f,  -0.004133f, -0.031200f,
    -0.004038f, 0.063495f,  0.099386f,  0.053754f,  -0.024524f, -0.098694f,
    -0.190445f, -0.233008f, -0.238871f, -0.336407f, -0.414497f, -0.372869f,
    -0.281518f, -0.216655f, -0.170531f, -0.123111f, -0.109650f, -0.061558f,
    0.071021f,  0.101198f,  0.055387f,  0.081703f,  0.077905f,  0.058347f,
    0.006256f,  -0.038624f, -0.054572f, -0.054146f, -0.055920f, -0.064542f,
    -0.072630f, -0.065124f, -0.035368f, -0.006122f, -0.008186f, -0.026509f,
    -0.047452f, -0.050450f, -0.015630f, 0.035520f,  0.053823f,  0.012491f,
    -0.059610f, -0.091814f, -0.044644f, 0.062938f,  0.178362f,  0.261199f,
    0.300512f,  0.291322f,  0.228145f,  0.137348f,  0.056080f,  -0.010541f,
    -0.062425f, -0.077458f, -0.036001f, 0.034189f,  0.060692f,  -0.002490f,
    -0.114046f, -0.224204f, -0.358209f, -0.438610f, -0.460614f, -0.544573f,
    -0.580909f, -0.485170f, -0.359503f, -0.281086f, -0.210837f, -0.146584f,
    -0.132512f, -0.100012f, 0.024048f,  0.072651f,  0.059337f,  0.098780f,
    0.388370f,  0.450450f,  0.476300f,  0.426243f,  0.343599f,  0.283926f,
    0.256011f,  0.223593f,  0.175226f,  0.165927f,  0.204974f,  0.208948f,
    0.127391f,  0.005731f,  -0.078294f, -0.071209f, 0.003958f,  0.078897f,
    0.106000f,  0.102884f,  0.119740f,  0.168719f,  0.186921f,  0.128662f,
    0.035353f,  -0.051289f, -0.107839f, -0.132309f, -0.150027f, -0.165486f,
    -0.173558f, -0.194111f, -0.230335f, -0.253077f, -0.243741f, -0.232185f,
    -0.266414f, -0.357041f, -0.409472f, -0.354455f, -0.269073f, -0.178604f,
    -0.129015f, -0.147222f, -0.170066f, -0.132859f, -0.157016f, -0.234460f,
    -0.175718f, -0.091610f, -0.021862f, 0.071521f,  0.147258f,  0.143273f,
    0.135951f,  0.157716f,  0.207847f,  0.251473f,  0.256412f,  0.199747f,
    0.121382f,  0.065930f,  0.056474f,  0.056720f,  0.037880f,  0.043278f,
    0.087011f,  0.098377f,  0.040872f,  -0.035923f, -0.075465f, -0.062387f,
    -0.022679f, 0.011352f,  0.018885f,  0.024933f,  0.059665f,  0.113261f,
    0.132360f,  0.091387f,  0.028009f,  -0.024946f, -0.052349f, -0.057467f,
    -0.065040f, -0.073742f, -0.071646f, -0.083265f, -0.111855f, -0.130674f,
    -0.127020f, -0.134999f, -0.188728f, -0.290857f, -0.353105f, -0.299514f,
    -0.205229f, -0.103232f, -0.041630f, -0.056835f, -0.083949f, -0.038664f,
    -0.029508f, -0.103437f, -0.082179f, -0.038323f, -0.032430f, 0.016205f,
    0.069870f,  0.046649f,  0.016522f,  0.033498f,  0.139601f,  0.156364f,
    0.141221f,  0.085617f,  0.029033f,  -0.004196f, 0.000975f,  0.010097f,
    -0.001504f, 0.014680f,  0.064231f,  0.081059f,  0.048154f,  0.015944f,
    0.006727f,  0.009797f,  0.010258f,  -0.003236f, -0.032159f, -0.039436f,
    -0.009549f, 0.033350f,  0.050629f,  0.031616f,  0.006444f,  -0.001043f,
    0.012065f,  0.026315f,  0.021017f,  0.019014f,  0.035959f,  0.038187f,
    0.009256f,  -0.025494f, -0.042800f, -0.079308f, -0.159296f, -0.271946f,
    -0.336347f, -0.276044f, -0.161360f, -0.041906f, 0.045121f,  0.053573f,
    0.034522f,  0.095553f,  0.142502f,  0.071616f,  0.035114f,  0.015653f,
    -0.043129f, -0.049988f, -0.027824f, -0.085686f, -0.143021f, -0.127863f,
    0.041537f,  0.029497f,  -0.018591f, -0.081315f, -0.127900f, -0.141253f,
    -0.126877f, -0.118608f, -0.129558f, -0.102322f, -0.032864f, 0.016806f,
    0.032390f,  0.055104f,  0.072587f,  0.061564f,  0.025231f,  -0.027356f,
    -0.092955f, -0.127509f, -0.120185f, -0.092295f, -0.062524f, -0.038200f,
    -0.008323f, 0.035999f,  0.088613f,  0.123776f,  0.129987f,  0.132497f,
    0.142118f,  0.136230f,  0.095930f,  0.040672f,  -0.001687f, -0.062099f,
    -0.151398f, -0.258675f, -0.322277f, -0.258963f, -0.117041f, 0.030128f,
    0.147709f,  0.190276f,  0.189022f,  0.260905f,  0.344290f,  0.289561f,
    0.206168f,  0.121942f,  -0.010981f, -0.086211f, -0.103433f, -0.180486f,
    -0.249824f, -0.221986f, 0.106638f,  0.050790f,  -0.054270f, -0.163134f,
    -0.246820f, -0.280672f, -0.281415f, -0.290082f, -0.313494f, -0.282992f,
    -0.187929f, -0.093859f, -0.028355f, 0.035744f,  0.068834f,  0.042935f,
    -0.021418f, -0.102295f, -0.201835f, -0.270825f, -0.283756f, -0.247565f,
    -0.177787f, -0.094130f, -0.004993f, 0.080634f,  0.150939f,  0.194687f,
    0.215790f,  0.225919f,  0.228671f,  0.217338f,  0.170889f,  0.097678f,
    0.030946f,  -0.044269f, -0.136827f, -0.234707f, -0.287924f, -0.221793f,
    -0.049225f, 0.130975f,  0.270989f,  0.336086f,  0.332534f,  0.384828f,
    0.478549f,  0.444760f,  0.347507f,  0.232509f,  0.049750f,  -0.097049f,
    -0.159653f, -0.222626f, -0.275191f, -0.225091f, -0.227561f, -0.177517f,
    -0.095802f, -0.022710f, 0.009959f,  -0.005676f, -0.073017f, -0.141864f,
    -0.133751f, -0.050466f, 0.029673f,  0.051341f,  -0.001206f, -0.091258f,
    -0.134303f, -0.096098f, -0.049878f, -0.036113f, -0.007934f, 0.047648f,
    0.105639f,  0.157397f,  0.186188f,  0.166913f,  0.079682f,  -0.032813f,
    -0.091482f, -0.074769f, -0.035840f, -0.018526f, 0.006925f,  0.000902f,
    -0.015309f, 0.039664f,  0.113744f,  0.177263f,  0.201877f,  0.166584f,
    0.130731f,  0.117164f,  0.050000f,  0.003503f,  -0.036685f, -0.146857f,
    -0.264866f, -0.396652f, -0.467286f, -0.440053f, -0.425567f, -0.405388f,
    -0.395830f, -0.466047f, -0.495241f, -0.421392f, -0.432374f, -0.531490f,
    -0.162944f, -0.113509f, -0.033984f, 0.036920f,  0.076406f,  0.062485f,
    -0.005752f, -0.075762f, -0.071584f, 0.012078f,  0.099854f,  0.132003f,
    0.085873f,  -0.008484f, -0.072204f, -0.063571f, -0.039086f, -0.035145f,
    -0.014804f, 0.026500f,  0.067866f,  0.106028f,  0.135904f,  0.137869f,
    0.073481f,  -0.034972f, -0.111259f, -0.116457f, -0.084522f, -0.060118f,
    -0.030678f, -0.036412f, -0.047586f, 0.000531f,  0.062039f,  0.124028f,
    0.158817f,  0.138620f,  0.118763f,  0.124514f,  0.082026f,  0.062004f,
    0.067335f,  0.035146f,  -0.009634f, -0.098307f, -0.158814f, -0.153033f,
    -0.159035f, -0.143428f, -0.123191f, -0.198441f, -0.261468f, -0.220758f,
    -0.229863f, -0.331183f, -0.174144f, -0.119183f, -0.044268f, 0.023386f,
    0.066636f,  0.052634f,  -0.018196f, -0.087872f, -0.082626f, 0.003999f,
    0.096982f,  0.137386f,  0.102742f,  0.017752f,  -0.055360f, -0.073913f,
    -0.076694f, -0.075251f, -0.043743f, -0.001060f, 0.028777f,  0.053770f,
    0.080810f,  0.086898f,  0.027630f,  -0.075046f, -0.150406f, -0.155919f,
    -0.111516f, -0.064071f, -0.026777f, -0.044460f, -0.071647f, -0.041682f,
    0.001090f,  0.055625f,  0.091871f,  0.087731f,  0.100366f,  0.124903f,
    0.095692f,  0.095260f,  0.136348f,  0.159016f,  0.172187f,  0.128222f,
    0.091698f,  0.074864f,  0.050428f,  0.077646f,  0.125710f,  0.065165f,
    -0.014679f, 0.005830f,  0.006624f,  -0.090340f, -0.174498f, -0.120563f,
    -0.057864f, -0.004382f, 0.032100f,  0.014432f,  -0.050441f, -0.106135f,
    -0.084838f, 0.010415f,  0.094006f,  0.113558f,  0.075906f,  0.016360f,
    -0.038128f, -0.069885f, -0.094135f, -0.100404f, -0.063133f, -0.013879f,
    0.014574f,  0.033072f,  0.054088f,  0.056585f,  -0.000104f, -0.084504f,
    -0.127725f, -0.092054f, -0.009217f, 0.052946f,  0.072377f,  0.011682f,
    -0.064653f, -0.078616f, -0.070980f, -0.044570f, -0.024779f, -0.006843f,
    0.057606f,  0.095097f,  0.050343f,  0.034762f,  0.060795f,  0.068523f,
    0.065885f,  0.045821f,  0.077736f,  0.108977f,  0.099538f,  0.156068f,
    0.250790f,  0.217385f,  0.137664f,  0.166385f,  0.171998f,  0.075801f,
    -0.099336f, -0.047359f, 0.008525f,  0.044795f,  0.068713f,  0.043794f,
    -0.016846f, -0.059569f, -0.019958f, 0.090796f,  0.177769f,  0.190969f,
    0.156654f,  0.119825f,  0.083107f,  0.047925f,  0.018568f,  0.017297f,
    0.065114f,  0.128315f,  0.169866f,  0.199197f,  0.230318f,  0.230794f,
    0.166194f,  0.086773f,  0.061995f,  0.119015f,  0.214352f,  0.271568f,
    0.266359f,  0.167520f,  0.043754f,  -0.017544f, -0.042517f, -0.043594f,
    -0.043489f, -0.012590f, 0.087056f,  0.117915f,  0.031148f,  -0.025895f,
    -0.037381f, -0.055493f, -0.078348f, -0.084750f, 0.015094f,  0.140445f,
    0.174770f,  0.251478f,  0.369981f,  0.351183f,  0.280807f,  0.304833f,
    0.294177f,  0.189434f,  -0.006011f, -0.006008f, -0.006012f, -0.006008f,
    -0.006011f, -0.006008f, -0.006011f, -0.006009f, -0.006010f, -0.006010f,
    -0.006009f, -0.006010f, -0.006009f, -0.006011f, -0.006009f, -0.006010f,
    -0.006009f, -0.006010f, -0.006010f, -0.006010f, -0.006010f, -0.006009f,
    -0.006010f, -0.006009f, -0.006010f, -0.006010f, -0.006010f, -0.006009f,
    -0.006011f, -0.006008f, -0.006013f, -0.006004f, -0.006018f, -0.005999f,
    -0.006023f, -0.005995f, -0.006025f, -0.005996f, -0.006021f, -0.006002f,
    -0.006015f, -0.006006f, -0.006013f, -0.006006f, -0.006014f, -0.006005f,
    -0.006015f, -0.006005f, -0.006014f, -0.006007f, -0.006011f, -0.006010f,
    -0.006009f, -0.006012f, -0.006008f, -0.006012f, -0.006008f, -0.006012f,
    -0.006008f, -0.006012f, -0.006008f, -0.006011f, -0.006009f, -0.006011f,
    -0.006009f, -0.006010f, -0.006010f, -0.006009f, -0.006011f, -0.006009f,
    -0.006011f, -0.006009f, -0.006010f, -0.006009f, -0.006010f, -0.006010f,
    -0.006009f, -0.006010f, -0.006009f, -0.006010f, -0.006010f, -0.006010f,
    -0.006010f, -0.006010f, -0.006009f, -0.006012f, -0.006006f, -0.006016f,
    -0.006001f, -0.006022f, -0.005995f, -0.006027f, -0.005993f, -0.006025f,
    -0.005998f, -0.006019f, -0.006004f, -0.006014f, -0.006006f, -0.006013f,
    -0.006006f, -0.006015f, -0.006004f, -0.006015f, -0.006005f, -0.006013f,
    -0.006008f, -0.006010f, -0.006011f, -0.006008f, -0.006012f, -0.006007f,
    -0.006012f, -0.006008f, -0.006012f, -0.006008f, -0.006012f, -0.006008f,
    -0.006011f, -0.006009f, -0.006010f, -0.006010f, -0.006009f, -0.006010f,
    -0.006009f, -0.006011f, -0.006009f, -0.006011f, -0.006009f, -0.006010f,
    -0.006010f, -0.006010f, -0.006010f, -0.006009f, -0.006010f, -0.006009f,
    -0.006010f, -0.006010f, -0.006010f, -0.006010f, -0.006011f, -0.006008f,
    -0.006013f, -0.006004f, -0.006018f, -0.005998f, -0.006025f, -0.005993f,
    -0.006027f, -0.005995f, -0.006022f, -0.006001f, -0.006016f, -0.006005f,
    -0.006013f, -0.006006f, -0.006014f, -0.006005f, -0.006015f, -0.006004f,
    -0.006014f, -0.006006f, -0.006012f, -0.006010f, -0.006009f, -0.006012f,
    -0.006007f, -0.006012f, -0.006008f, -0.006012f, -0.006008f, -0.006012f,
    -0.006008f, -0.006011f, -0.006009f, -0.006011f, -0.006009f, -0.006010f,
    -0.006010f, -0.006009f, -0.006011f, -0.006009f, -0.006011f, -0.006009f,
    -0.006010f, -0.006009f, -0.006010f, -0.006010f, -0.006009f, -0.006010f,
    -0.006009f, -0.006010f, -0.006010f, -0.006010f, -0.006010f, -0.006010f,
    -0.006009f, -0.006012f, -0.006006f, -0.006016f, -0.006001f, -0.006022f,
    -0.005995f, -0.006027f, -0.005993f, -0.006025f, -0.005998f, -0.006019f,
    -0.006004f, -0.006014f, -0.006006f, -0.006013f, -0.006006f, -0.006015f,
    -0.006004f, -0.006015f, -0.006005f, -0.006013f, -0.006008f, -0.006010f,
    -0.006011f, -0.006008f, -0.006012f, -0.006007f, -0.006011f, -0.006008f,
    -0.006012f, -0.006008f, -0.006011f, -0.006008f, -0.006011f, -0.006009f,
    -0.006010f, -0.006010f, -0.006009f, -0.006010f, -0.006009f, -0.006011f,
    -0.006009f, -0.006010f, -0.006009f, -0.006010f, -0.006010f, -0.006010f,
    -0.006010f, -0.006009f, -0.006010f, -0.006009f, -0.006010f, -0.006010f,
    -0.006010f, -0.006009f, -0.006011f, -0.006008f, -0.006013f, -0.006004f,
    -0.006018f, -0.005999f, -0.006023f, -0.005995f, -0.006025f, -0.005996f,
    -0.006021f, -0.006002f, -0.006015f, -0.006006f, -0.006013f, -0.006006f,
    -0.006014f, -0.006005f, -0.006015f, -0.006005f, -0.006014f, -0.006007f,
    -0.006011f, -0.006010f, -0.006009f, -0.006012f, -0.006008f, -0.006012f,
    -0.230380f, -0.070423f, 0.103502f,  0.214383f,  0.227800f,  0.176511f,
    0.092242f,  -0.009590f, -0.112945f, -0.197327f, -0.226835f, -0.180145f,
    -0.094833f, -0.030541f, -0.021603f, -0.036810f, -0.013192f, 0.056271f,
    0.129823f,  0.156227f,  0.124778f,  0.062075f,  0.002831f,  -0.011884f,
    0.018452f,  0.058075f,  0.103965f,  0.168597f,  0.216939f,  0.225146f,
    0.227846f,  0.245163f,  0.258988f,  0.241881f,  0.197848f,  0.120442f,
    0.024296f,  -0.042565f, -0.138878f, -0.175075f, -0.168270f, -0.147911f,
    -0.060754f, 0.009374f,  0.024341f,  0.012121f,  -0.009207f, -0.004807f,
    -0.013934f, -0.054358f, -0.047790f, 0.033413f,  0.102455f,  0.010220f,
    -0.002915f, 0.093019f,  -0.145929f, -0.014641f, 0.120582f,  0.204859f,
    0.207320f,  0.156077f,  0.082013f,  -0.002054f, -0.074848f, -0.128693f,
    -0.140404f, -0.093185f, -0.029818f, 0.000570f,  -0.015795f, -0.049423f,
    -0.055325f, -0.028384f, 0.011400f,  0.031881f,  0.015962f,  -0.031202f,
    -0.087552f, -0.119631f, -0.119491f, -0.108589f, -0.089233f, -0.049594f,
    -0.010821f, 0.011649f,  0.037835f,  0.080342f,  0.125265f,  0.154281f,
    0.172251f,  0.159195f,  0.105621f,  0.061219f,  -0.008518f, -0.039177f,
    -0.048508f, -0.032614f, 0.055363f,  0.102561f,  0.097813f,  0.085066f,
    0.051313f,  0.029875f,  0.000691f,  -0.075335f, -0.092653f, -0.006874f,
    0.095457f,  0.048345f,  0.043093f,  0.173888f,  -0.053345f, 0.041216f,
    0.124741f,  0.166459f,  0.145996f,  0.093533f,  0.030522f,  -0.030001f,
    -0.062854f, -0.068613f, -0.040997f, 0.021586f,  0.064610f,  0.059794f,
    0.017431f,  -0.040615f, -0.084628f, -0.102166f, -0.090497f, -0.068485f,
    -0.065300f, -0.098840f, -0.162854f, -0.231747f, -0.284775f, -0.321788f,
    -0.341744f, -0.336148f, -0.317026f, -0.296523f, -0.269769f, -0.227757f,
    -0.169074f, -0.095238f, 0.004758f,  0.095248f,  0.130840f,  0.139572f,
    0.107908f,  0.073878f,  0.017884f,  -0.003918f, 0.053818f,  0.060425f,
    0.024205f,  0.025989f,  0.011670f,  -0.003766f, -0.002800f, -0.072779f,
    -0.106675f, -0.036569f, 0.065318f,  0.047422f,  0.065100f,  0.233765f,
    0.053751f,  0.119100f,  0.152915f,  0.145022f,  0.098748f,  0.035902f,
    -0.022262f, -0.067432f, -0.069370f, -0.037254f, 0.024215f,  0.109028f,
    0.152825f,  0.130778f,  0.062350f,  -0.029615f, -0.119228f, -0.178797f,
    -0.187008f, -0.153359f, -0.127727f, -0.156361f, -0.240791f, -0.350362f,
    -0.453318f, -0.531468f, -0.581084f, -0.599686f, -0.595397f, -0.584358f,
    -0.574556f, -0.555915f, -0.507457f, -0.406208f, -0.225220f, -0.007301f,
    0.164759f,  0.267927f,  0.287727f,  0.232751f,  0.101893f,  0.016522f,
    0.019143f,  -0.028061f, -0.097611f, -0.082059f, -0.063870f, -0.050662f,
    0.003080f,  -0.030481f, -0.072316f, -0.034442f, 0.032003f,  0.027346f,
    0.074834f,  0.269230f,  0.069732f,  0.137998f,  0.152962f,  0.116537f,
    0.045522f,  -0.040914f, -0.117813f, -0.172469f, -0.169080f, -0.116596f,
    -0.033841f, 0.067123f,  0.130081f,  0.124223f,  0.051954f,  -0.071097f,
    -0.206416f, -0.301467f, -0.319978f, -0.271863f, -0.226066f, -0.249980f,
    -0.352506f, -0.496629f, -0.635548f, -0.737949f, -0.796521f, -0.815666f,
    -0.808356f, -0.796536f, -0.794623f, -0.792316f, -0.757121f, -0.635914f,
    -0.380282f, -0.033524f, 0.282396f,  0.484032f,  0.545153f,  0.457064f,
    0.250996f,  0.103473f,  0.060089f,  -0.020436f, -0.106351f, -0.093493f,
    -0.072271f, -0.051153f, 0.031595f,  0.029842f,  -0.022697f, -0.027129f,
    0.002806f,  0.002349f,  0.082599f,  0.291516f,  0.205415f,  0.096678f,
    0.009402f,  -0.015073f, -0.008713f, 0.001714f,  0.045455f,  0.087792f,
    0.030355f,  -0.023534f, -0.003675f, 0.035613f,  0.099684f,  0.113609f,
    0.019654f,  -0.073107f, -0.102256f, -0.038152f, 0.057942f,  0.088997f,
    0.014736f,  -0.164522f, -0.370981f, -0.452433f, -0.340403f, -0.067503f,
    0.249395f,  0.463754f,  0.507854f,  0.396417f,  0.178008f,  -0.055603f,
    -0.180303f, -0.156003f, -0.042865f, 0.006228f,  0.000464f,  0.018676f,
    -0.025436f, -0.059123f, -0.031449f, -0.030514f, 0.007943f,  0.109195f,
    0.118764f,  0.042794f,  -0.019525f, -0.051857f, -0.030187f, -0.051333f,
    -0.170216f, -0.190880f, -0.087528f, -0.115698f, -0.070327f, 0.338544f,
    0.146060f,  0.060901f,  0.001262f,  -0.016247f, -0.029004f, -0.034272f,
    0.011292f,  0.066937f,  0.027925f,  -0.013143f, 0.002320f,  0.018365f,
    0.050991f,  0.054371f,  -0.016638f, -0.080055f, -0.087234f, -0.008184f,
    0.089039f,  0.114007f,  0.039331f,  -0.143526f, -0.359687f, -0.450126f,
    -0.346059f, -0.084881f, 0.202706f,  0.371826f,  0.370153f,  0.230333f,
    -0.002023f, -0.220191f, -0.300638f, -0.224052f, -0.064143f, 0.024057f,
    0.039439f,  0.052591f,  0.005415f,  -0.012848f, 0.016709f,  0.002719f,
    -0.010644f, 0.029631f,  0.037017f,  0.001678f,  -0.011613f, -0.023236f,
    0.014452f,  0.045635f,  -0.012647f, -0.025242f, 0.035388f,  -0.039565f,
    -0.026286f, 0.279074f,  0.065530f,  0.023275f,  0.014777f,  0.007087f,
    -0.026169f, -0.037136f, 0.012989f,  0.062589f,  0.023520f,  -0.014736f,
    -0.000361f, 0.017247f,  0.053528f,  0.063199f,  -0.017663f, -0.099474f,
    -0.103977f, 0.001837f,  0.115376f,  0.122439f,  0.007251f,  -0.217274f,
    -0.454511f, -0.536174f, -0.401334f, -0.104292f, 0.202317f,  0.355751f,
    0.313793f,  0.128613f,  -0.136143f, -0.351344f, -0.393655f, -0.266443f,
    -0.053633f, 0.085394f,  0.118064f,  0.116461f,  0.060401f,  0.028559f,
    0.024422f,  -0.020037f, -0.050469f, -0.030530f, -0.030953f, -0.041075f,
    -0.013837f, -0.002120f, 0.023530f,  0.067090f,  0.046957f,  0.042276f,
    0.081235f,  0.015304f,  0.012255f,  0.204472f,  -0.038843f, -0.050234f,
    -0.028492f, -0.025556f, -0.059128f, -0.063786f, 0.013814f,  0.081301f,
    0.036524f,  -0.017947f, -0.017427f, -0.004293f, 0.047244f,  0.088713f,
    0.026060f,  -0.076056f, -0.105684f, 0.017499f,  0.169402f,  0.162665f,
    -0.032447f, -0.344511f, -0.620465f, -0.673959f, -0.453099f, -0.052725f,
    0.323856f,  0.484775f,  0.396208f,  0.149854f,  -0.160361f, -0.381083f,
    -0.402468f, -0.245560f, 0.003868f,  0.178732f,  0.212192f,  0.190128f,
    0.124885f,  0.058140f,  0.002736f,  -0.076474f, -0.096362f, -0.052311f,
    -0.044973f, -0.045640f, -0.004444f, 0.017260f,  0.013755f,  0.028901f,
    0.012972f,  -0.000104f, 0.042531f,  0.035809f,  0.045824f,  0.154341f,
    -0.074021f, -0.084973f, -0.053228f, -0.046451f, -0.073948f, -0.046556f,
    0.070186f,  0.167926f,  0.129410f,  0.067493f,  0.058789f,  0.072290f,
    0.127280f,  0.145263f,  0.023870f,  -0.143050f, -0.196147f, -0.033792f,
    0.174019f,  0.165727f,  -0.103156f, -0.498172f, -0.790822f, -0.772666f,
    -0.414905f, 0.130271f,  0.597711f,  0.763076f,  0.599727f,  0.255829f,
    -0.115035f, -0.339667f, -0.346461f, -0.187723f, 0.064141f,  0.247139f,
    0.272689f,  0.241603f,  0.181214f,  0.100983f,  0.015990f,  -0.083457f,
    -0.098337f, -0.036372f, -0.024661f, -0.026132f, 0.014799f,  0.026291f,
    -0.001973f, -0.033900f, -0.068759f, -0.084783f, -0.017747f, 0.038610f,
    0.076315f,  0.150428f,  -0.003365f, -0.003365f, -0.003365f, -0.003365f,
    -0.003365f, -0.003365f, -0.003365f, -0.003365f, -0.003364f, -0.003366f,
    -0.003364f, -0.003367f, -0.003362f, -0.003368f, -0.003361f, -0.003369f,
    -0.003361f, -0.003369f, -0.003361f, -0.003367f, -0.003364f, -0.003364f,
    -0.003367f, -0.003362f, -0.003369f, -0.003361f, -0.003369f, -0.003362f,
    -0.003367f, -0.003364f, -0.003365f, -0.003366f, -0.003364f, -0.003367f,
    -0.003363f, -0.003366f, -0.003364f, -0.003365f, -0.003365f, -0.003364f,
    -0.003366f, -0.003364f, -0.003366f, -0.003363f, -0.003366f, -0.003364f,
    -0.003366f, -0.003365f, -0.003364f, -0.003367f, -0.003362f, -0.003369f,
    -0.003360f, -0.003370f, -0.003359f, -0.003370f, -0.003365f, -0.003365f,
    -0.003365f, -0.003365f, -0.003365f, -0.003365f, -0.003365f, -0.003365f,
    -0.003366f, -0.003364f, -0.003366f, -0.003363f, -0.003368f, -0.003362f,
    -0.003369f, -0.003360f, -0.003370f, -0.003360f, -0.003369f, -0.003362f,
    -0.003366f, -0.003366f, -0.003363f, -0.003369f, -0.003361f, -0.003370f,
    -0.003361f, -0.003369f, -0.003362f, -0.003366f, -0.003365f, -0.003364f,
    -0.003367f, -0.003363f, -0.003367f, -0.003363f, -0.003366f, -0.003365f,
    -0.003364f, -0.003366f, -0.003364f, -0.003366f, -0.003363f, -0.003367f,
    -0.003363f, -0.003366f, -0.003364f, -0.003365f, -0.003366f, -0.003363f,
    -0.003368f, -0.003361f, -0.003370f, -0.003359f, -0.003371f, -0.003359f,
    -0.003365f, -0.003365f, -0.003365f, -0.003365f, -0.003365f, -0.003365f,
    -0.003365f, -0.003365f, -0.003364f, -0.003366f, -0.003363f, -0.003367f,
    -0.003362f, -0.003368f, -0.003361f, -0.003370f, -0.003360f, -0.003370f,
    -0.003361f, -0.003368f, -0.003364f, -0.003364f, -0.003367f, -0.003361f,
    -0.003369f, -0.003360f, -0.003369f, -0.003361f, -0.003368f, -0.003364f,
    -0.003365f, -0.003366f, -0.003363f, -0.003367f, -0.003363f, -0.003367f,
    -0.003364f, -0.003365f, -0.003365f, -0.003364f, -0.003366f, -0.003364f,
    -0.003367f, -0.003363f, -0.003367f, -0.003364f, -0.003366f, -0.003365f,
    -0.003364f, -0.003367f, -0.003362f, -0.003369f, -0.003360f, -0.003371f,
    -0.003359f, -0.003371f, -0.003365f, -0.003365f, -0.003365f, -0.003365f,
    -0.003365f, -0.003365f, -0.003365f, -0.003365f, -0.003366f, -0.003364f,
    -0.003366f, -0.003363f, -0.003368f, -0.003362f, -0.003369f, -0.003360f,
    -0.003370f, -0.003360f, -0.003369f, -0.003362f, -0.003366f, -0.003366f,
    -0.003363f, -0.003369f, -0.003361f, -0.003370f, -0.003361f, -0.003369f,
    -0.003362f, -0.003366f, -0.003365f, -0.003364f, -0.003367f, -0.003363f,
    -0.003367f, -0.003363f, -0.003366f, -0.003365f, -0.003364f, -0.003366f,
    -0.003364f, -0.003366f, -0.003363f, -0.003367f, -0.003363f, -0.003366f,
    -0.003364f, -0.003365f, -0.003366f, -0.003363f, -0.003368f, -0.003361f,
    -0.003370f, -0.003359f, -0.003371f, -0.003359f, -0.003365f, -0.003365f,
    -0.003365f, -0.003365f, -0.003365f, -0.003365f, -0.003365f, -0.003365f,
    -0.003364f, -0.003366f, -0.003364f, -0.003367f, -0.003362f, -0.003368f,
    -0.003361f, -0.003369f, -0.003361f, -0.003369f, -0.003361f, -0.003367f,
    -0.003364f, -0.003364f, -0.003367f, -0.003362f, -0.003369f, -0.003361f,
    -0.003369f, -0.003362f, -0.003367f, -0.003364f, -0.003365f, -0.003366f,
    -0.003364f, -0.003367f, -0.003363f, -0.003366f, -0.003364f, -0.003365f,
    -0.003365f, -0.003364f, -0.003366f, -0.003364f, -0.003366f, -0.003363f,
    -0.003366f, -0.003364f, -0.003366f, -0.003365f, -0.003364f, -0.003367f,
    -0.003362f, -0.003369f, -0.003360f, -0.003370f, -0.003359f, -0.003370f,
    -0.072887f, -0.041598f, -0.021521f, -0.020681f, -0.020418f, 0.003790f,
    0.057463f,  0.104498f,  0.136302f,  0.150142f,  0.136393f,  0.096356f,
    0.039952f,  -0.010789f, -0.082433f, -0.191585f, -0.287057f, -0.343970f,
    -0.383106f, -0.424777f, -0.456192f, -0.445860f, -0.397357f, -0.332891f,
    -0.270027f, -0.224061f, -0.190792f, -0.148846f, -0.094535f, -0.030988f,
    0.038694f,  0.101192f,  0.156970f,  0.193654f,  0.216921f,  0.235619f,
    0.209260f,  0.091923f,  -0.088909f, -0.201280f, -0.234614f, -0.240960f,
    -0.168114f, -0.084354f, -0.039847f, 0.066184f,  0.202909f,  0.228758f,
    0.121177f,  0.022711f,  0.019176f,  0.075502f,  0.087453f,  0.093399f,
    0.127680f,  0.209110f,  -0.047690f, -0.031309f, -0.026907f, -0.036115f,
    -0.046675f, -0.031778f, 0.016146f,  0.066035f,  0.112815f,  0.153444f,
    0.170451f,  0.159873f,  0.134903f,  0.112274f,  0.070181f,  -0.001490f,
    -0.066795f, -0.111899f, -0.153555f, -0.215315f, -0.282483f, -0.308023f,
    -0.287367f, -0.251527f, -0.222988f, -0.206733f, -0.193061f, -0.168134f,
    -0.129476f, -0.083620f, -0.032644f, 0.019158f,  0.076311f,  0.133751f,
    0.196844f,  0.261430f,  0.282229f,  0.211199f,  0.053386f,  -0.059671f,
    -0.082797f, -0.087631f, -0.047152f, -0.013504f, -0.011069f, 0.053273f,
    0.148533f,  0.171373f,  0.104234f,  0.031910f,  0.020085f,  0.067124f,
    0.067269f,  0.058575f,  0.063935f,  0.136907f,  -0.030328f, -0.027541f,
    -0.043187f, -0.068427f, -0.087044f, -0.086602f, -0.051911f, -0.003442f,
    0.048596f,  0.103690f,  0.141941f,  0.155771f,  0.160609f,  0.171691f,
    0.176045f,  0.159904f,  0.138248f,  0.118183f,  0.088163f,  0.024124f,
    -0.062463f, -0.118582f, -0.126680f, -0.116434f, -0.114624f, -0.126728f,
    -0.144372f, -0.152044f, -0.144952f, -0.132773f, -0.124328f, -0.114532f,
    -0.082334f, -0.020517f, 0.071680f,  0.180141f,  0.254442f,  0.241232f,
